homme,-0.013255949,0.01099464,0.058014274,0.0037188637,-0.055567022,-0.012848075,0.017358696,0.013435895,-0.02149743,0.005947183,-0.0055513037,-0.033325817,-0.04316281,-0.0012228764,0.038604204,-0.04505823,-0.0027081724,0.008277471,0.031238455,0.03442948,0.027039738,0.010676738,-0.013255949,-0.041147426,0.044914275,-0.048705116,0.005206409,0.025600178,-0.020525727,-7.286836E-5,-0.02572014,0.0193141,-0.022912998,0.029894866,0.0014035711,0.0045855986,-0.028623253,0.0035299214,0.005317375,-0.0036168948,-0.05772636,0.01947005,-0.034309518,0.0123562245,-0.02526428,-0.020477742,-0.024616478,0.0040127737,0.0017244731,0.0041087447,0.02975091,0.05283186,0.14837067,0.055902917,0.00824748,-0.012464192,0.0077256393,0.008547388,0.0016674905,-0.028671239,0.016782872,-0.029654939,-0.012740107,-0.03253406,-0.019973896,-0.027303657,0.028191386,-0.019002194,-0.016770875,0.029007137,3.8753784E-5,-0.021197522,0.04119541,0.00366488,-0.008655355,-0.047865376,-0.0119183585,0.0050804475,0.025192302,-0.04971281,-0.0037728471,-0.020765655,-0.0055453056,0.0075157033,-0.03003882,-0.0438586,0.026511898,0.03675677,-0.045346145,-0.015187359,-0.019494044,-0.00026335704,0.011990336,-0.015079392,-0.0562868,-0.0049304934,-0.0049065007,0.015583239,0.031238455,0.063772514,0.012008331,0.055806946,0.040475633,-0.03886812,-0.0073177638,0.014515565,-0.0014253145,-0.045466106,0.048153285,0.0025402238,-0.0382923,-0.018798256,-0.0015445281,0.019386075,-0.029295048,0.082774706,-0.0021113548,-0.029990835,-0.020837633,0.037380576,0.022349171,0.021113548,-0.062860794,0.006735942,0.012596151,0.006789925,0.032246146,-0.055519037,-0.016303018,-0.03740457,-0.002745661,-0.0066519673,-0.021653384,-0.031598344,-0.0021458443,0.015607231,0.018870234,-0.044098526,-0.026895782,0.045562077,-0.046353836,-0.04388259,0.027255671,0.0029825887,0.016974812,-0.0009964455,0.013915747,-0.010676738,0.03651684,-0.012836078,0.0035029296,-0.0061091334,-0.01443159,-0.053263724,-0.031934243,-0.02859926,0.012266252,-0.041363362,0.020417761,0.042898893,-0.030950543,-0.011474494,0.018006498,0.03577307,0.014623531,-0.03387765,-0.04333076,-0.06132526,0.0004764794,-0.012068313,0.020897614,-0.004672572,0.013099997,0.00081874983,-0.012968037,0.049328927,-0.0032240148,-0.032486074,0.01564322,0.017190747,0.08195896,-0.031694315,-0.032510065,0.017658604,-0.024100635,-0.015499264,-0.020681681,0.0053233732,0.022984976,-0.0033259836,0.011708423,0.027495598,0.052687902,0.05609486,-0.015031407,0.0049754796,-0.0040427647,0.016698897,0.015763184,0.02641593,-0.030158784,0.018870234,-0.016087085,0.001901419,-0.0032779984,-0.013831774,-0.020765655,-0.013435895,-0.047601454,0.08037544,-0.009872983,0.022181222,0.026080031,-0.010010941,0.0075217015,0.012668129,0.002936103,-0.043738633,-0.013375913,-0.018582322,0.049760796,0.037116658,0.006891894,-0.0320782,0.055615008,0.004204715,-0.05815823,-0.029462997,-0.02480842,0.008061537,-0.022049263,-0.025192302,0.0007044098,-0.047769405,0.034189552,0.0034879341,-0.010508789,-0.031574354,-0.012932048,-0.070442475,-0.021365471,0.017334703,0.03750054,0.008229486,0.028455306,0.029894866,-0.040571604,0.0039557912,-0.01063475,0.07236189,-0.0074737165,-0.021281498,-0.019254116,-0.043138817,0.022469135,-0.003295993,0.007353753,0.061613172,0.012608147,-0.0060491515,0.0059351865,-0.01132454,0.0065200077,-0.026271973,-0.009309156,-0.020153841,-0.0021203521,0.020105856,0.0119183585,0.02615201,0.012908055,-0.005314376,-0.021161534,-0.06506812,0.04676171,0.059837718,0.06823515,-0.05585493,0.049568854,-0.05772636,0.035125267,0.026751826,-0.013339924,0.018006498,0.040331677,0.034741383,0.0046365834,0.040307682,0.001004693,0.0043636668,0.000968704,0.053071782,0.002418761,0.015631223,0.017106773,-0.011228569,-0.036612812,-0.017694592,-0.018666297,0.051008414,0.013651828,0.0037338592,0.04198717,-0.02859926,0.05969376,0.0123562245,-0.033853654,0.055710975,-0.052208047,0.0025222292,-0.034285523,-0.0058362167,-0.02003388,-0.028287357,-0.060893394,-0.0010924162,0.060029656,-0.021953292,-0.022901002,-0.011306545,-0.023356862,-0.027351642,0.0013660826,-0.03874816,-0.0016809864,-0.02742362,-0.022625087,0.024136625,-0.042682957,-0.057006583,-0.032773986,-0.013147983,-0.0058542113,0.033109885,0.028695231,-0.0020798645,0.07063442,-0.040931493,-0.033829663,-0.036804754,-0.050480574,-0.01776657,0.03308589,-0.037884425,-0.0019943905,0.060173612,-0.009573075,-0.026176002,0.04119541,0.00045773512,0.04731354,-0.00050422095,0.019050179,-0.030878564,0.018126462,0.028167393,0.0042497013,-0.009021243,0.033229847,-0.037068672,-0.0013878259,-0.012668129,-0.013783788,-0.0015430285,-0.032318126,-0.07735237,0.01825842,0.03409358,-0.0046395822,-0.058302186,0.01335192,-0.014551554,-0.005482325,-0.011432507,0.07740035,0.011690428,0.033229847,-0.056862626,-0.07116225,-0.004195718,0.059933685,0.04009175,-0.03920402,0.013339924,-0.0033499764,-0.022409152,-0.00965705,0.0030575658,-0.026032045,0.053023797,-0.016171059,0.017226737,-0.016219044,-0.022397157,-0.051008414,0.03694871,0.016686901,-0.023488823,0.0051404294,0.023008969,-0.020237816,0.0043066842,0.0060431533,-0.01927811,-0.021005582,-0.04709761,0.035581127,-0.014287634,-0.010802699,0.019566022,-0.008307462,0.03253406,0.060029656,-0.007431729,-0.02931904,0.036108967,0.009801005,-0.019398073,-0.0012056316,-0.01914615,-0.038700175,-0.004348671,-0.006436033,0.026583876,0.012932048,0.012380217,-0.0016749882,0.038964093,0.011744412,0.027615562,0.02859926,-0.027543584,0.025960067,-0.042467024,-0.026176002,-0.012536169,0.005917192,0.007353753,0.030974535,-0.015919136,-0.03056666,0.024976369,0.00536836,-0.0014688012,-0.0010684235,0.006561995,0.00732976,-0.029343033,-0.037236623,-0.0409075,-0.0024472522,0.00074339786,0.0046095913,0.021845324,0.026751826,0.0040217713,0.034813363,-0.002084363,0.021053568,0.001953903,-0.04961684,0.005053456,-0.030326733,-0.00070478464,-0.02840732,-0.019086167,0.047937352,-0.029606953,-0.0033289827,-0.012524173,0.03793241,-0.023848712,0.016027102,-0.01312399,-0.003802838,0.008775319,-0.00801955,-0.035485156,-0.0132679455,-0.01060476,0.037908416,-0.009387132,-0.017826553,-0.036012996,-0.0193141,0.06996262,0.021137541,-0.022049263,0.018690288,0.04829724,-0.024592485,0.034357503,-0.011222571,0.020597706,0.007683652,0.022049263,-0.04441043,-0.032414094,-0.05887801,-0.01240421,-0.014227653,-0.05619083,0.027063731,0.01613507,-0.017958513,0.017142761,0.009615062,-0.026559884,0.044242483,-0.012920052,-0.016458971,0.014695509,0.01871428,-0.05537508,0.021029575,0.035917025,0.021413457,-0.039899807,-0.005407348,-0.017862542,-0.030230762,-0.0018369387,-0.057006583,-0.009561079,-0.012200272,0.05441537,0.0015520258,-0.0040757544,0.018738274,-0.010328844,0.008427425,0.015703201,0.02509633,0.024244592,0.012002332,0.008625365,-0.014887451,0.027543584,-0.018570326,-0.014731498,0.00811552,-0.014839466,-0.01528333,-0.019889923,0.024016662,-0.012284246,0.0033829664,0.04061959,0.00084724114,0.0015205353,-0.0219293,0.016434979,0.0015355308,-0.0053593623,-0.024508512,0.0070898337,-0.027951458,0.006945878,-0.008283469,0.018114464,0.025288273,0.054463357,-0.005416345,0.022241203,0.008799312,-0.018450363,-0.0021263503,0.016219044,-0.03855622,0.038340285,0.029726917,0.00092296797,-0.0932835,-0.0008314959,-0.021485435,0.024688456,-0.03776446,0.03963589,-0.0017064785,-0.05177618,-0.03872417,-0.01675888,-0.018546334,-0.03265402,-0.00494249,0.022229208,0.027711533,-0.047529478,0.041219406,0.019098165,0.0017109772,0.011444503,-0.014959429,-0.005422343,0.0058632083,-0.03164633,0.0044356445,-0.041939184,-0.012170281,0.0016779873,0.010880675,-0.011390519,-0.009729027,0.003979784,0.0068978923,-0.018150454,-0.017142761,-0.012536169,-0.052927826,0.0044056536,0.0052903835,-0.014947433,0.0017244731,-0.047241565,0.015847158,-0.021149537,0.022565104,0.023116937,0.01623104,-0.055519037,0.0080435425,0.022553109,0.03478937,-0.031526368,0.02238516,-0.015451279,0.007251784,0.011228569,-0.0066579655,-0.0036588819,-0.013699814,-0.027711533,0.0053563635,-0.03246208,0.033133876,-0.01515137,-0.006526006,-0.015619228,-0.015367304,0.0005045958,0.03874816,-0.00051921635,0.016303018,0.051488265,0.014515565,-0.0077016465,-0.0021743355,-0.0079115825,-0.014179667,0.0042467024,0.00804954,-0.019158145,-0.0353412,-0.0353412,-0.012110299,0.012788093,-0.032917943,-0.0071078283,-0.013076005,0.022073256,0.0015730193,0.013675821,-0.009135209,-0.00017966385,0.04573003,0.0022957984,0.029822888,-0.038148344,-0.011990336,0.09606665,0.0028281359,0.05863808,-0.018270418,0.048417207,0.0042467024,-0.019721974,-0.029439004,0.005428341,0.03793241,-0.03047069,-0.025432229,0.029918859,0.008037544,0.008325456,0.0045166197,0.04162728,0.0018024492,-0.011510483,0.010298853,-0.029175086,0.0074377274,-0.0037398573,-0.0024307573,0.035029296,-0.035797063,0.0014568048,-0.0017094776,-0.013879759,-0.04721757,-0.01429963,0.0044686347,-0.036180943,-0.0055453056,0.012800089,-0.015955124,-0.025768125,0.04493827,0.0018294409,0.028383328,-0.0030215767,-0.0092971595,0.005512316,0.011042626,0.008061537,0.0028101413,-0.02948699,-0.0032540057,0.032390103,-0.010280859,0.015571242,-0.027495598,0.0044206493,0.0015070395,-0.017094776,0.018114464,-0.0079115825,0.011588459,-0.0013488379,-0.019805947,-0.005815223,0.04234706,0.007569687,0.0029750909,-0.011720419,0.018366387,-0.008535392,0.00912921,0.008589376,0.00081050233,-0.038916107,-0.0043576686,-0.018990198,-0.032222155,-0.011732415,-0.009111216,0.02687179,-0.002219322,-0.02238516,-0.004630585,-0.042011164,0.0043666656,-0.007497709,0.0045046234,-0.024928384,-0.017382689,-0.015103385,-0.020885618,0.02009386,-0.013028019,0.013639832,0.009645053,0.01528333,-0.022948988,0.024448529,-0.03937197,0.040115744,-0.016255032,-0.0055033183,-0.03819633,0.010622754,-0.019182138,-0.0059351865,-0.0209456,0.007509705,-0.008373441,-0.009087224,-0.0070418483,-0.018354392,0.027039738,-0.005518314,0.030854572,-0.020921607,0.012230263,-0.018402377,0.009932965,0.016938824,-0.021425454,-0.0271597,0.0043576686,0.008193497,-0.018858237,-0.023164922,-0.0034909332,-0.028383328,-0.018630307,0.02009386,-0.04928094,-0.011066618,0.0015910139,-0.0004869762,-0.005602288,-0.02081364,0.023716753,0.038604204,-0.0037578517,0.02641593,0.00013317805,-0.02562417,-0.022325179,0.016614923,0.04359468,-0.00056832633,-0.027807504,-0.011558468,-0.011564466,0.004204715,-0.02405265,0.0031850268,0.00037657243,-0.02075366,0.006052151,0.004672572,-0.02117353,0.007143817,0.0057282494,-0.050864458,-0.0006972869,0.005014468,0.016962817,0.03200622,-0.037452556,0.0071678096,-0.03973186,-0.018822249,0.008493405,0.013987726,-0.0193141,0.00988498,-0.012212268,0.023068951,0.027831495,0.0051464275,0.011756408,-0.0075456942,0.0072877733,0.045010246,0.0036468857,-0.028791202,-0.0014882953,-0.011888367,-0.026799811,0.0038808142,-0.020021882,-0.016027102,-0.009992947,-0.0150913885,-0.007431729,0.022181222,-0.031790286,-0.0104188165,-0.0014747994,0.014671517,-0.0016839855,0.0022028268,-0.018462358,0.011570465,0.024112632,0.029702924,0.028911166,0.029367026,0.025480215,-0.020417761,-0.0546553,0.0076956484,0.037572518,-0.024508512,0.029726917,-0.041795228,0.0024262585,0.032941934,0.005707256,0.012908055,0.042898893,0.010310849,0.0070118573,0.00710183,0.02293699,-0.033469774,-0.0014965427,-0.0021548416,0.02759157,-0.035173252,-0.052639917,-0.017406682,-0.012680125,0.022337174,-0.02071767,-0.022061259,-0.038460247,-0.008133515,-9.831371E-5,0.009069229,0.023896698,-0.04045164,0.035749078,0.032678016,-0.030278748,0.018150454,0.0209456,0.010082919,0.013279942,0.018606314,-0.0057192524,0.017826553,0.00477754,-0.021509428,0.0025837105,0.033373803,-0.0020558718,-0.030494682,0.04692966,0.024196606,0.017958513,0.015943129,0.008517398,0.02248113,0.04263497,0.036276914,-0.013135986,-0.021221515,-0.013675821,-6.926009E-5,-0.002756158,0.009003249,-0.0017679598,0.006705951,0.0034549444,0.018450363,0.003475938,-0.028431313,-0.014359612,-0.021377468,0.03668479,0.016830858,-0.016926827,0.01040682,0.009399128,0.016878843,-0.0032749993,-0.0003092805,-0.010436811,0.065835886,-0.0033979616,0.033781677,-0.013675821,-0.002961595,0.007125823,0.020837633,0.007857599,-0.008487406,0.008529394,-0.002820638,-0.023188915,-0.00032015218,0.020825636,-0.004654578,-0.0189782,0.009878981,0.025552193,-0.014863458,-0.027447613,-0.030350726,0.007365749,0.013879759,-0.035005305,-0.005911194,0.01943406,-0.0382923,-0.0061391243,0.012692122,0.023224903,0.029966842,-0.0112165725,-0.01839038,0.0369727,0.06391647,0.009735025,-0.010172891,0.018870234,0.019218128,-0.0040757544,0.03577307,0.008421427,0.0209456,0.02588809,-0.020117853,-0.081767015,0.01577518,0.0064060427,0.03982783,-0.011678431,0.006238094,-0.00010721724,0.012548165,-0.0032779984,0.019889923,-0.013076005,0.0018609314,-0.044626363,0.020069867,0.009597068,0.02143745,0.028263364,0.009747022,0.010502791,-0.020669684,0.0035629114,0.008889284,-0.009723029,0.03344578,-0.03462142,0.015367304,-0.008121518,0.033925634,0.0037548526,-0.0271597,-0.001937408,-0.0028431313,0.003517925,-0.022037266,0.032917943,0.010334842,0.012476188,0.014119686,-0.04673772,-0.027015746,-0.005059454,0.003919802,0.009789009,-0.018450363,0.009183194,-0.018762266,-0.00078426034,-0.0047895364,0.004339674,-0.01420366,-0.004657577,0.020345783,-0.017874539,-0.006061148,-0.008433423,-0.02314093,-0.001580517,-0.0147674875,0.029391019,0.012740107,-0.008619366,0.029942852,-0.026847797,-0.023932688,0.03003882,0.0065739914,-0.008229486,0.02687179,0.009765016,-0.034765378,0.0007415234,-0.007455722,0.017430674,-0.0008599872,-0.034045596,0.023308877,0.02386071,-0.01083269,-0.0021578406,0.0025612174,-0.0037908417,0.0056442753,0.016866846,0.035173252,-0.016554942,0.018726278,-0.01675888,-0.025792118,-0.0040427647,0.025168309,0.004597595,-0.021161534,0.0107787065,0.004204715,0.0027306655,0.0027351642,-0.005197412,-0.005017467,-0.01649496,0.022805031,0.029247062,0.036156952,0.020525727,-0.03721263,0.01393974,0.0059711756,-0.017550638,-0.006999861,-0.033829663,0.029223071,-0.017262725,-0.0040217713,0.019745966,0.015067396,0.009417122,-0.014611536,0.0031400404,0.009807004,9.147205E-5,-0.024388548,-0.02431657,-0.011594458,-0.021545416,0.005737247,-0.0140717,0.018438365,-0.02414862,-0.06722746,0.006567993,0.026511898,-0.037260614,-0.009375135,0.03488534,-0.010496792,-0.043570686,0.002981089,0.0054703285,0.026655855,0.013387909,0.037524533,-0.0014665519,-0.017166754,0.015631223,0.019709978,0.0018804254,0.044194497,-0.003517925,0.0010444309,-0.029894866,-0.043474715,0.121498875,-0.03478937,-0.004192719,0.011582461,-0.01753864,-0.009033239,0.03229413,0.021101553,0.016219044,-0.02840732,-0.00409075,0.01312399,-0.021749355,-0.005413346,-0.0022433146,-0.0107787065,0.004840521,-0.01659093,-0.036252923,-0.0075516924,4.194031E-5,-0.0041567297,0.0050354614,-0.016566938,-0.013879759,0.021785343,-0.005947183,0.0077256393,0.0064000445,-0.010040931,0.04397856,-0.0047565466,0.012122296,-0.023020966,-0.0013683318,0.0058902004,-0.031142484,-0.026463913,0.014719502,-0.03651684,0.012236261,-0.015475271,0.013735803,0.017946517,0.008895282,0.0027186694,0.0062200995,-0.02342884,0.0029720918,-0.022349171,-0.0116724335,0.02859926,0.028215379,-0.017790563,-0.0017994501,-0.014731498,0.002745661,0.028719224,0.032845963,-0.013423898,0.0050864457,-0.017370692,0.008847296,0.013675821,-0.0123562245,-0.013303935,-0.035269223,-0.025072338,0.018690288,0.01393974,0.005926189,-0.03056666,0.03164633,-0.00013280316,0.029726917,0.010196884,0.017334703,-0.035749078,-0.05575896,-6.124691E-5,0.024976369,0.033373803,0.014275637,0.0019104163,0.01286007,-0.016482964,-0.035557136,-0.004702563,-0.013411902,0.0073357583,0.0409075,-0.021857321,0.01888223,0.03342179,-0.015967121,0.0307586,-0.00093796337,0.009573075,0.01263214,-0.0075936797,-0.03541318,-0.013903752,0.027399627,0.029055122,-0.00811552,0.00073515036,0.017118769,-0.00070703396,0.0029510981,-0.036180943,0.005083447,0.025600178,0.024736442,-0.006681958,0.019194135,-0.038604204,0.011084613,-0.00837944,-0.009813001,-0.015343311,0.004618589,-0.013975729,-0.032318126,-0.0019509039,-0.028623253,0.026391936,-0.03265402,0.052735887,0.027615562,-0.024244592,0.022541113,-0.023272889,5.731647E-6,-0.036372885,-0.013423898,0.027279664,0.017454667,-0.028071422,0.014719502,-0.031526368,0.017694592,-0.025864096,0.053071782,0.023308877,0.016075088,0.034141567,-0.027471606,-0.008871289,0.0008517397,0.02408864,0.028527284,-0.011144594,0.02143745,-0.033109885,-0.016171059,-0.031070506,-0.0049604843,0.020573713,0.018666297,-0.0022463135,-0.033229847,-0.055806946,0.010886674,-0.040427648,0.025312265,-0.005386354,0.0055692983,0.038508233,0.008013551,-0.007497709,-0.0005630779,-0.0043246783,-0.0032720002,-0.012536169,0.027471606,-0.005776235,-0.009189192,0.014239649,-0.0020138847,0.037188638,0.008427425,0.029055122,-0.019913916,0.03884413,-0.0032420093,0.023032961,-0.022205215,-0.012278249,-0.019638,-0.033805672,0.005419344,-0.0222532,0.009333149,0.0179945,-0.021365471,0.043450724,-0.041867208,-0.06996262,-0.023224903,-0.023704756,0.0063640554,-0.012728111,-0.019805947,0.04208314,0.01852234,-0.0031790286,-0.01973397,0.065739915,-0.021977285,0.0057702367,-0.0095250895,-0.009974952,0.021953292,0.02876721,-0.0035779066,0.018210435,-0.022601094,0.014047707,-0.0132679455,0.009135209,0.032869957,-0.012188275,-0.0080255475,-0.032318126,-0.0048675127,0.0081575075,0.0048705116,-0.005752242,0.021197522,-0.019350087,0.025912082,0.01420366,0.0077256393,-0.018330399,0.0017064785,0.007977562,-0.033805672,0.008337452,-0.0016899836,0.030254755,-0.027807504,-0.008331454,-0.022673072,0.023296881,0.014059704,-0.020477742,0.022661075,-0.03740457,0.020669684,0.015499264,0.04728955,0.02274505,-0.012812085,0.011582461,-0.012776096,-0.012644136,0.005032462,-0.014035711,0.028095415,-0.025864096,0.031718306,0.00022980478,-0.020957597,-0.0137238065,-0.018054483,-0.014155675,-0.026487906,-0.0072637806,-0.0005057205,-0.02147344,-0.0048165284,-0.028935159,-0.002451751,0.025576185,0.0012716114,0.0030980534,0.037524533,-0.009057232,-0.007851601,0.018834244,-0.02670384,-0.006130127,-0.003913804,-0.0026871788,0.0034909332,-0.009944961,0.008337452,0.035893034,-0.01708278,0.004447641,0.021161534,0.007809614,0.042898893,0.008127516,-0.008505401,-0.012236261,0.015235345,-0.018942213,0.019697981,0.0045016245,0.012824082,0.0011838883,-0.017406682,-0.016542945,0.010052928,0.00017422801,-0.022721058,0.01653095,0.03344578,0.01708278,0.006747938,-0.043642666,0.007899586,-0.0041807224,0.032582045,0.025768125,0.0013458388,-0.019673988,-0.005521313,0.00441765,0.0386282,-0.030134792,0.0041477326,-0.020993585,-0.009585071,0.022349171,0.0049454886,0.0053653605,0.016662909,0.00088248035,0.014551554,0.008187498,-0.018534336,-0.0054763267,0.030806586,-0.0059441836,-0.039036073,-0.0074437256,0.0117863985,0.011114604,-0.02562417,-0.015799172,-0.013615839,0.013771792,0.020825636,0.0073717474,-0.0031850268,-0.00024273833,-0.018006498,0.031094499,-0.011576463,0.0077076447,0.0049005025,-0.010940657,0.018342394,-0.00333798,0.015427286,-0.026895782,0.0012333731,0.058014274,-0.015499264,-0.0052094082,0.027279664,0.016207047,-0.00033945878,0.051680207,0.0038658187,0.03675677,0.00012521174,0.017454667,-0.019086167,-0.012788093,-0.024880398,-0.061373245,0.011870373,0.03450146,0.029103108,-0.024784427,-0.039347976,0.010700731,-0.014587543,-0.021065563,-0.008895282,0.020345783,0.0031010525,0.033205852,0.005059454,-0.018054483,-0.0041087447
femme,-0.012888608,-0.04045311,-0.036954056,0.008300818,-0.039169285,0.002704531,0.028672118,-0.027614849,-0.00619572,0.025739456,0.001999685,-0.040553804,-0.04659534,-0.014537443,0.0986784,0.01763373,0.002964128,0.02786658,0.034310885,0.019634988,-0.0024842666,-0.03592196,-0.0318691,0.0129767135,0.030283194,-0.007677784,-0.025022024,-0.014247953,0.01356828,0.038766515,-0.033983633,0.010409061,-0.0146129625,0.009918187,0.031164251,-0.017432345,0.003341724,0.036425423,-0.012599118,-0.010899936,-0.025676524,0.061522964,0.011554436,0.040402766,-0.008351163,-0.06605411,-0.0010619885,-0.010509754,0.027337946,-0.00035930614,0.027312772,0.024392698,0.095556945,0.007973568,0.012095656,0.0051730643,0.019433605,0.028949022,0.0027470104,-0.010037758,0.013794838,0.0071365633,0.007174323,-0.004550031,0.021308998,-0.016601635,0.00055498735,-0.019068595,-0.000528241,-0.028672118,0.002197923,0.0049056006,0.04568911,0.032599114,-0.025953427,-0.030232849,-0.025349274,-0.064644426,-0.010465701,-0.028697291,-0.03330396,-0.031516675,0.015154184,0.015405914,-0.051655125,-0.05764631,0.029528001,-0.03264946,-0.027564503,-0.014071742,-0.0068533663,0.008911264,0.013178098,-0.01697923,-0.03697923,0.010358715,-0.035292633,-0.0526117,0.012743863,0.040226553,-0.014059155,0.023373188,0.02285714,0.03763373,0.034310885,-0.0045972303,-0.030106982,-0.023247324,-0.013014473,-0.001949339,-0.015305222,-0.03750786,0.020339834,0.043348014,0.015884202,0.08805537,-0.008835745,0.023662679,-0.018086845,-0.004748269,0.013102579,-0.0077218367,0.0071239765,0.01144745,0.014789174,-0.0042448076,-0.0052391435,-0.039169285,-0.04790434,0.0020217116,-0.0072624283,-0.008785399,-0.030308368,0.022769036,0.0025298928,0.058149774,-0.0004055223,-0.030484578,0.00066000625,0.040402766,-0.047048453,0.020566393,-0.0019068595,0.026482062,0.008697293,-0.032674637,0.000464915,0.010169917,0.009811201,-0.004650723,0.0022734422,0.031013213,-0.012806796,-0.017759595,-0.0451353,0.015531779,0.032347385,-0.002248269,-0.013996223,-0.028923849,-0.012831968,-0.019748267,-0.017583383,0.05120201,-0.024392698,0.0010029892,-0.04531151,0.001760541,0.033052232,-0.023083698,0.020188795,-0.0019398992,0.04913782,0.025613591,-0.020566393,0.07567023,0.01426054,-0.04045311,-0.030560099,-0.019219633,0.021799872,0.015909376,-0.035242286,0.01181246,0.0029373816,0.0055663935,-0.0012515732,0.021648834,-0.030132156,-0.0056010066,-0.0005266677,0.044732533,0.0034172432,0.051856507,0.025827562,0.027942099,-0.0080616735,0.0035745748,0.03682819,0.024682188,0.020918814,-0.004128382,0.0061642537,0.045261167,-0.0061139073,-0.04800503,0.005679672,-0.004594084,-0.05079924,0.037533037,0.021812458,0.016060414,-0.021976084,-0.004276274,-0.0152674625,0.03421019,-0.0028901822,0.0021475768,-0.0015819697,0.020478286,-0.009880427,0.085135296,0.027942099,-0.015531779,0.014713655,0.015594712,-0.030610444,-0.102454364,-0.031768404,-0.029679041,-0.0006187067,-0.05548143,0.020314662,0.0010077092,0.013052233,-0.012020137,-0.024153553,0.007035871,-0.0003156466,-0.0049496535,-0.037784766,0.014688482,0.036198862,-0.020163624,0.009471364,0.0056261793,-0.006003775,-0.025953427,0.061371926,0.06308369,-0.00034888292,0.017583383,-0.027312772,0.0032693516,0.0009384832,0.04274386,0.04010069,0.019798614,-0.009477658,0.019685335,0.004918187,0.007394587,0.023738198,-0.019861545,-0.034738827,-0.002570799,-0.018804278,0.029074887,0.0038168656,0.0015316235,-0.021674007,0.0037665195,0.031013213,-0.020604152,0.05170547,0.034059152,0.023045938,0.022831967,0.04981749,-0.009811201,-0.0042007547,0.013366896,-0.030786656,-0.030786656,0.02478288,-0.00339207,-0.012095656,0.070585266,0.004874134,-0.044933915,-0.02409062,0.031214597,-0.005981749,0.0005542007,0.0031057266,0.014826934,-0.0026321583,-0.021321584,-0.016928885,0.06419131,0.04037759,0.015380741,0.012643171,-0.0033952168,0.031541847,0.041812457,-0.07441157,0.034336057,-0.0122341085,0.0027328506,-0.028294522,0.035619885,0.011837632,-0.0006816393,-0.005997482,-0.009955946,0.05155443,-0.016941471,-0.05301447,-0.020201383,-0.008011327,0.023348015,-0.0062806793,-0.021522969,-0.018779105,-0.02819383,-0.029150406,0.00025802388,-0.027388291,-0.039848957,-0.006091881,-0.0052171173,-0.028999368,0.006727501,-0.017356826,-0.0040937695,0.07063561,-0.013857771,-0.029125232,-0.008527375,-0.06524858,-0.03312775,0.013958463,-0.06988042,0.019823786,0.051755816,-0.02445563,0.047803644,0.024820639,-0.009402139,0.022013843,0.0019556324,0.028672118,-0.025336687,-0.09339206,0.06746381,-0.028722465,0.028949022,0.05638766,-0.020239143,-0.02125865,-0.03526746,-0.0056954054,-0.022265574,-0.034965385,-0.049842663,0.060868464,-0.00063994643,0.02162366,0.030610444,0.012303335,-0.017230961,0.018678412,-0.007853995,0.023373188,0.040402766,0.013820011,0.020528633,-0.015431087,-0.005311516,0.011900566,0.00772813,0.0024496536,0.0034235364,0.005018879,-0.01549402,-0.009792321,-0.018275643,-0.028370041,0.036702324,-0.010050345,0.03091252,0.0050534923,-0.02470736,-0.02322215,0.05769666,-0.009389552,-0.0328005,-0.05072372,0.010188797,-0.015292635,0.021006921,0.0041598487,0.003451856,-0.012328507,0.032246694,0.013001887,0.03947136,0.020113276,-0.003955317,-0.050925106,0.04521082,0.05200755,-0.019282566,-0.021686593,0.01269981,0.0013263057,-0.034487095,-0.0036941469,0.01977344,-0.020075517,-0.0022545625,-0.0117747,0.06106985,-0.019609816,-0.020641912,-0.026280677,0.07008181,-0.0019949651,0.016463183,0.046746377,0.035166766,0.0032976712,0.00870988,-0.056035236,0.021825045,0.024858398,0.022869727,-0.04100692,-0.026028946,-0.0017747009,0.049716797,-0.049112644,0.021699179,0.010717431,0.033757076,-0.030761482,-0.02844556,-0.018665826,-0.01054122,0.027816234,0.034814347,-0.05729389,0.027312772,-0.020881055,-0.017230961,0.045814972,0.026859658,-0.0024826932,0.0067463806,0.0063876645,-0.032297038,0.04677155,0.008678413,-0.007413467,0.006708621,0.027841408,-0.036500942,-0.024292005,-0.0039458773,0.015179357,-0.0006741661,0.012032724,-0.062278155,0.004927627,0.00936438,0.039848957,0.006538703,0.01770925,-0.07325361,0.016135933,-0.0065009436,0.021611074,-0.10305852,-0.0034896159,0.07572057,0.04611705,-0.004455632,0.0028665825,0.03066079,0.0010698552,-0.025147889,-0.012888608,0.018942729,-0.015871616,-0.033152923,-0.03421019,-0.018187538,-0.06585273,0.008558841,-0.0147765875,-0.018313402,-0.012246694,0.0055569536,0.015682818,0.033429828,-0.008766519,0.01356828,-0.00014336845,0.036349904,0.0013569854,-0.01213971,0.0027784768,-0.0047168024,0.012756449,0.021069853,0.022756448,0.0017636877,-0.009584644,-0.014701068,-0.0066519817,-0.019093769,-0.01574575,0.0024795467,-0.03483952,0.049616106,-0.07098804,-0.003143486,0.005103838,-0.0047608553,0.013618627,-0.031264942,0.021321584,0.0036028945,-0.0001434668,0.0015080238,-0.019937064,-0.0062617995,-0.0059345495,-0.002595972,-0.009320326,-0.04511013,-0.029653868,0.0062083066,0.061623655,-0.04052863,-0.01875393,-0.018099431,0.002729704,0.0067463806,0.009301446,-0.035896786,-0.017130269,-0.02231592,-0.011963498,0.0011532409,-0.016828192,-0.007923221,0.027841408,0.016249212,-0.002227816,0.040226553,-0.0143612325,-0.00013107693,0.008779106,-0.019169288,-0.034461923,-0.024216486,-0.05613593,0.008873505,0.0185022,0.0151038375,-0.05623662,-0.0036972936,-0.006076148,-0.0070736306,0.014600377,1.3274857E-5,0.027488984,-0.018376336,-0.0010604153,-0.02434235,-0.02811831,0.01640025,-0.024883572,0.013580867,0.036299556,0.014864693,0.01879169,0.0033102578,0.014021396,-0.019937064,0.005972309,0.007627438,0.007023284,-0.023989929,0.003838892,-0.042567648,-0.022617996,-0.020213969,-0.04390182,-0.014814347,-0.0018470734,0.0033259909,0.010132157,0.0046570166,-0.025701696,-0.018804278,0.0013428256,0.010717431,0.008848332,0.019106355,-0.013467588,0.008942731,0.023889236,-0.0063719316,-0.00926998,0.018590307,-0.0060006287,-0.02017621,-0.0048174947,-0.017042164,-0.015368154,-0.00086768396,0.033329133,-0.016916297,0.007413467,-0.012448079,0.0036563873,-0.048231587,0.035720576,0.01331655,0.01516677,-0.018552547,0.0013593454,0.0034487096,-0.015141597,0.007293895,0.0050440524,-0.028219003,-0.015921962,0.0027281307,0.0010399622,0.023826303,-0.025235996,0.005921963,0.018313402,-0.0060320953,0.03139081,0.0024402137,0.0062680924,-0.002347388,-0.0141976075,-0.014789174,-0.01113908,0.010969162,0.0032756447,0.008703587,-0.0037098802,-0.026104465,0.0080365,0.015959721,-0.041132785,0.01389553,0.011988671,-0.015242289,0.018414095,0.0125613585,0.0019131528,0.06434235,0.013215858,0.082315914,0.010667085,-0.013908117,0.0036784138,-0.010937695,-0.046318434,0.014990559,0.04636878,-0.024292005,-0.049666453,-0.03179358,0.025613591,-0.00039116578,0.005226557,0.024921332,-0.005723725,-0.007337948,0.0013593454,-0.025135303,0.021183131,0.02129641,-0.012309628,-0.02983008,-0.04702328,-0.0008716173,0.0047010696,-0.020478286,-0.0180365,-0.011655128,0.034915037,-0.010157331,0.0025141595,0.0072561353,-0.020629324,-0.037784766,-0.017885461,-0.025311515,-0.0018108871,-0.018313402,-0.020478286,-0.046142224,0.029804906,-0.0051950905,0.0026132786,-0.041862804,0.01853996,0.01807426,-0.00433606,-0.019748267,0.008370043,-0.015959721,0.0013585587,0.005387035,-0.0060792947,-0.033001885,0.017444933,0.017067336,-0.017948393,-0.014675896,0.0072435485,-0.0037696662,0.0032850846,-0.034084328,0.004704216,-0.01807426,0.00870988,-0.022920074,-0.03015733,-0.0077155437,-0.002460667,0.002276589,-0.027388291,0.0074512265,0.04440528,0.0050534923,-0.009842668,-0.051604778,-0.019572057,-0.00651353,0.008130899,-0.01882945,-0.006331025,0.024820639,-0.032397732,-0.035796095,-0.03544367,0.019207047,-0.008886091,-0.006633102,0.012580238,0.0048835743,-0.033152923,-0.015682818,0.021611074,0.0070484574,0.03179358,-0.021686593,-0.009811201,0.012366267,-0.012359974,-0.01079295,0.011699181,-0.0026872244,0.0068785395,-0.013379483,0.02917558,-0.022051603,-0.009339206,0.021497795,0.019534297,-0.0318691,-0.036626805,0.0084707355,-0.028244177,0.033455,-0.026910003,0.031919442,-0.031768404,-0.033404652,-0.039999995,-0.009779735,0.02438011,-0.0061736936,-0.011258652,0.010509754,0.032146,0.014235367,-0.024128381,0.024505977,0.002341095,-0.018477028,0.00014582677,0.011057268,0.0096979225,0.019597229,0.02786658,0.010427941,-0.017444933,0.021749526,0.03828823,0.00932662,0.014071742,0.010390181,0.048609182,0.0049905595,0.0012877595,0.008049087,0.029049713,0.022542477,-0.028042791,-0.002665198,-0.022517305,-0.029301444,-0.01019509,-0.012146003,0.027337946,0.015821269,0.050446816,-0.0444808,0.053769663,0.006752674,0.020327248,-0.024933917,-0.016891126,-0.013769665,0.031290118,-0.011686594,-0.03959723,0.03723096,0.009817494,0.017608557,-0.042567648,0.027237253,-0.022466958,0.028974194,0.012278161,0.018124605,-0.005981749,-0.03549402,-0.045663934,-0.031189425,-0.010566393,-0.026280677,-0.0019666455,-0.0061422274,-0.0228949,0.014185021,-0.02703587,-0.002964128,-0.012378854,-0.0133039635,0.019874133,-0.011963498,-0.04810572,0.0058401506,-0.0039710505,-0.009798614,0.03204531,-0.0029798613,0.03773442,-0.025059784,-0.04727501,-0.01701699,0.029578349,-0.023385774,0.024329765,0.005040906,-0.01879169,0.008533668,0.023650093,-0.0004393486,0.0015921962,-0.007564505,0.01356828,-0.020704843,0.034059152,-0.03134046,0.010289489,-0.016702326,0.015619885,-0.02256765,-0.023247324,0.020969162,-0.01081183,-0.00082127115,-0.004424166,0.002531466,-0.028747637,0.0062051597,0.014789174,-0.015770923,0.03483952,0.005176211,-0.021019507,0.019685335,0.0012028004,0.026582753,-0.024443043,0.010075518,-0.008137193,0.00061398675,-0.027942099,0.03395846,0.005921963,-0.0012547198,-0.03944619,0.02409062,-0.007684077,0.009899307,0.058804274,0.011264945,-0.024657015,0.008118313,0.0126494635,0.055179354,0.013039647,0.032901194,0.010837004,0.00049795466,0.03320327,-0.030031463,0.040075514,0.036601633,0.03592196,0.04244178,0.0082252985,-0.023964755,0.002998741,-0.032523595,0.0020893642,-0.031843923,0.02166142,0.008187539,-0.001700755,-0.0010179357,0.010667085,0.017784769,-0.0052737566,0.035091247,-0.01911894,0.0477533,-0.030106982,0.014336059,-0.0029185019,0.036450595,0.046998106,0.0022813089,0.019282566,-0.021686593,0.048986778,0.00010718218,-0.0228949,-0.019005662,0.00033255975,-0.009842668,-0.02565135,-0.022769036,0.017696664,-0.012315921,-0.03466331,0.052662045,-0.011277532,0.022819381,-0.062429193,-0.010906229,-0.011019508,-0.040830705,-0.051906854,0.050346125,-0.012341094,0.010717431,-0.0062680924,-0.015657645,0.010465701,0.022227814,0.006126494,0.048886087,-0.0026463182,0.016853366,0.007992447,-0.011478917,-0.012001257,0.007054751,0.011768406,0.020377593,-0.06786658,0.0028807423,0.005670232,-0.011283825,0.0077155437,0.012347387,0.03378225,-0.02670862,-0.048256762,-0.022492131,0.015368154,-0.056186274,-0.0055758334,-0.018942729,0.011220893,0.011202013,0.0016220892,-0.030736309,0.028395215,0.037885457,0.016286971,0.022781622,-0.029905599,0.003152926,-0.001696035,-0.016903711,0.0039616106,0.012265574,-0.024405284,0.0072561353,-0.010528633,-0.012385147,0.02753933,-0.014134674,0.040151034,0.019685335,-0.021774698,-0.011799873,-0.030409059,0.0010147891,-0.029679041,-0.0007260855,0.049666453,-0.00988672,-0.0021349904,-0.019672748,-0.012605411,-0.019144114,-0.035468847,-0.016777847,0.019974824,0.016425423,-0.010887349,0.003316551,-0.0017684076,-0.021132786,0.009848961,-0.0022293893,0.012901194,0.030207675,0.0038955314,0.018892383,0.0204657,-0.012429199,-0.019999998,-0.00372876,0.00464443,2.0330197E-5,0.03526746,-0.0151038375,0.0045720576,-0.006708621,-0.021434862,-0.016865952,0.0063373186,0.012863435,0.0014041848,0.008596601,-0.0131403385,-0.014373818,-0.003615481,-0.009641283,-0.00247168,0.023964755,-0.052511007,0.050522335,0.009918187,-0.020528633,0.0005742605,0.019043421,-0.015733164,-0.001755821,0.03179358,0.019370671,-0.024317179,-0.019257393,-0.016500942,-0.024292005,-0.030560099,-0.0025047197,0.032020137,0.067614846,0.049666453,0.0008110446,0.005475141,-0.0032756447,-0.047300186,-0.01516677,-0.009685336,-0.00649465,-0.037382,-0.028621772,0.02736312,0.022404026,0.0018187538,-0.020188795,-0.0047954684,-0.0061831335,0.032397732,-0.006658275,0.010226557,-0.04375078,-0.019987412,-0.005160478,-0.018162364,0.0059597227,-0.009421019,0.010308369,0.0034078034,-0.034738827,-0.018842038,0.0077784765,-0.0046758964,-0.0015080238,-0.012328507,0.03894273,-0.01840151,-0.03222152,0.017105095,0.040755186,-0.034487095,-0.012586531,0.013102579,0.006563876,-0.018149778,-0.012674637,0.018124605,-0.0075393324,0.015506607,-0.029955944,0.101950906,-0.002382001,0.004509125,-0.0028807423,-0.0028870355,-0.01886721,-0.028042791,0.03599748,0.041812457,-0.012252988,-0.010220263,0.013593454,0.02811831,0.02108244,0.0099056,0.013656386,-0.0070044044,-0.030509751,-0.014701068,-0.0017542478,-0.018628066,0.0034581495,0.027488984,-0.0235494,-0.012624291,0.024896158,-0.03806167,0.005320956,0.009188168,-0.0033039644,0.03428571,0.04030207,-0.035846442,-0.0133039635,0.027438639,0.015531779,-0.00651353,0.0082252985,0.001143801,0.0015253302,-0.015204529,-0.016664566,0.017256135,0.018930143,0.03287602,0.012573944,0.015053491,0.007960981,-0.02605412,0.004518565,0.01208307,-0.001730648,0.024921332,0.0013373189,-0.004874134,-0.0069288854,0.007671491,-0.015116424,-0.0071176835,-0.016526116,-0.014487097,-0.017495278,0.030610444,0.023738198,-0.030509751,0.0061485204,-0.024191312,0.0036721204,-0.00988672,-0.032372557,0.019056007,0.01393329,0.032901194,-0.013857771,0.013820011,0.05087476,0.013266204,-0.023045938,-0.04430459,-0.04561359,-0.017696664,0.027287599,0.040151034,0.04848332,0.0022702955,-0.006331025,-0.033404652,-0.008615481,0.015405914,-0.024984265,0.029880425,0.02409062,-0.01955947,0.012196349,-0.005182504,-0.024732534,-0.031617366,0.0259786,0.0043832595,-0.029225925,0.005254877,-0.052712392,0.01767149,0.048860915,-0.007879169,-0.038011324,0.012013844,0.009439899,0.021069853,-0.03740717,-0.0037507862,-0.045084953,-0.010377595,0.021812458,0.009804908,-0.012177469,-0.0084707355,0.009653869,-0.0029185019,-0.04002517,0.005827564,-0.017067336,0.00092825666,-0.030937694,-0.0054373816,0.029452482,0.045185648,0.028999368,0.05366897,-0.020327248,0.025613591,-0.027438639,0.007702957,-0.03171806,-0.02779106,0.024808053,-0.00056285394,0.003615481,-0.020578979,-0.034487095,0.0032284453,0.0484078,0.013920704,-0.010566393,0.013555694,0.01697923,0.0035242287,0.013102579,-0.014524857,0.018086845,-0.021460036,-0.010390181,-0.01940843,-0.028722465,0.013480175,-0.030484578,-0.016790433,-0.0023662678,0.015544366,0.015342982,-0.020994334,-0.015355568,-0.020088105,-0.0018690999,0.010969162,-0.011875392,0.020151036,0.0008566708,0.007394587,-0.027061041,0.016752673,0.0152674625,-0.046570167,0.0047671488,-0.00084408425,0.016161107,-0.027337946,0.010490874,0.025412206,-0.0025566393,0.01879169,-0.0052580233,0.010881056,0.030308368,-0.0046853363,-0.013480175,0.00049795466,-0.025097543,0.017797355,-0.031189425,0.035116423,-0.0041252356,-0.017772183,-0.016412837,-0.05729389,0.023801131,-0.045638762,-0.02293266,0.00031702325,-0.019937064,-0.0064222775,0.011415984,8.66799E-5,0.06922592,-0.0076022646,-0.050446816,0.0018549401,0.011994964,-0.010358715,-0.009528004,0.016551288,-0.013731905,0.022101948,0.03421019,-0.014524857,0.039345495,-0.0017275014,0.029704213,-0.024317179,0.002973568,0.007986154,-0.018779105,-0.033983633,-0.031768404,-0.024065448,0.003247325,0.018930143,0.00959723,0.0142857125,-0.016450597,0.052410316,0.004122089,0.037105095,0.0023033351,-0.0024354937,-0.018804278,-0.03254877,0.014927626,0.04045311,0.040730014,-0.007797356,-0.028420387,-0.021246064,0.019005662,-0.016261797,-0.006557583,0.031843923,-0.047123972,0.025877908,0.03353052,-0.00022537757,-0.0006336532,-0.0031403396,0.0370044,0.0051887976,0.0025645057,0.030635618,-0.016677154,-0.00959723,-0.050346125,0.017243547,-0.0032001256,-0.023448708,-0.015733164,0.015342982,-0.015682818,-0.0037067335,-0.040503457,0.02811831,0.009062302,0.03400881,-0.037835114,-0.01668974,0.030837001,0.017067336,0.001919446,0.05087476,-0.019886719,0.0030176209,0.0142857125,-0.013882943,0.03567023,-0.029049713,-0.0063341716,0.003480176,0.004078036,0.022844555,0.039093766,-0.034436747,-0.01770925,0.03337948,0.0131403385,0.0314915,-0.030736309,0.022051603,-0.010409061,0.009030836,-0.0070295776,-0.021460036,-0.022781622,-0.016488357,-0.010421648,0.011730647,0.032573942,0.03592196,0.02297042,-0.007369414,0.01952171,0.012712397,0.014965385,0.0031985522,-0.02884833,-0.016236626,-0.022718688,0.022592824,-0.004162995,0.003152926,-0.00435494,-0.018640652,-0.0023159217,0.024845812,-0.0120704835,0.018816864,-0.028999368,-0.0513027,0.016123347,-0.026834484,0.0077847694,0.013517935,-0.012737569,-0.0035462552,0.015846442,0.0074826926,-0.013178098,0.009194461,0.0099496525,-0.035619885,0.021195719,-0.0038829448,0.0054908744,-0.039974824,-0.0093455,-0.014235367,0.014814347,0.0030144742,0.0022404026,-0.0012964127,0.03418502,-0.009641283,0.027765887,-0.018426681,-0.003530522,0.0021696032,-0.0018911263,0.03393329,0.001820327,0.0318691,0.0028760224,-0.0117495265,-0.0030066075,-0.004181875,0.0246696,0.02231592,0.024556322,0.019987412,-0.021095026,-0.0021538702,-0.0025141595,-0.005937696,0.0023662678,-0.01734424,-0.033253614,-0.011516676,-0.053870354,0.009911893,0.03964757,0.041283824,0.001422278,-0.038842034,-0.010994335,-0.014172434,-0.01857772,0.011548142,0.010547513,-0.011164254,0.047879163,3.2296007E-6,-0.012127123,0.005465701
enfant,0.009500483,-0.040399086,-0.036521338,0.002588103,-0.04545191,0.017708384,0.029588394,-0.041856177,-0.021468624,0.01936524,-0.030528454,-0.027426254,-0.019047968,0.009641492,0.030763468,0.0164158,-0.010099771,0.0032226436,0.032902107,0.0484601,-0.0013858543,0.04234971,-0.021926902,0.021668386,-0.029212369,-0.004368342,-0.05546355,0.015652,-0.0062278984,0.03487623,-0.042091195,0.0021298237,0.020070285,0.030974982,-0.017767137,0.007849502,-0.01203277,0.003651546,0.0021430433,-0.01983527,-0.043830305,0.07022249,0.0343827,0.034758724,-0.023195984,-0.05762569,0.008102143,0.013619121,0.04676799,0.020975092,0.04138615,0.010187902,0.0750638,0.0034899733,-0.0015951645,0.00061985216,0.0123500405,-0.025992664,-0.02780228,0.02171539,0.0063395305,0.019811768,0.051186275,0.014876452,0.019294735,-0.025687143,0.0126203075,-0.012056272,0.021315863,-0.015440488,-0.0057725566,-0.02876584,-0.010193777,-0.018166663,-0.025546135,-0.023525005,-0.038965493,-0.048225086,-0.017097345,0.00020747421,-0.030951481,0.008231401,-0.008137396,0.01703859,-0.0060692634,-0.02719124,0.047802057,0.0343827,-0.054852508,0.008078642,-0.028977355,-0.02063432,0.0593648,0.06890641,0.033489645,-0.015581497,0.01124547,0.03410068,0.044582352,0.019905774,-0.049353156,-0.010716686,-0.03454721,-0.037555404,0.012808319,-0.0015878204,0.00028513934,-0.044511847,0.0012147339,0.029776406,-0.005337779,-0.032103054,0.051374286,0.0035781038,-0.019482747,0.0045622294,-0.06392409,0.003813119,-0.029752905,0.049306154,0.015076214,-0.0234545,-0.0422322,-0.008260778,-0.008818939,-0.025029102,0.019635506,0.0052643367,-0.06486415,-0.012608557,-0.006562795,-0.010734312,-0.03189154,-0.0038924366,0.018953962,0.045334402,-0.0102349045,-0.009382975,0.018096158,0.03826045,-0.010969327,-0.0072737155,-0.00562861,-0.012326539,0.02236168,0.032596584,0.061197914,-0.020129038,0.012015143,0.01031716,-0.02611017,0.056779634,-0.042138197,-0.038236946,-0.054006457,-0.019047968,0.009729623,-0.0033724657,-0.001261737,-0.01811966,0.009759,0.0125028,-0.034993738,0.032573085,0.023936281,-0.051609304,0.009512234,-0.02328999,0.036803354,0.008254903,0.030645961,0.03395967,0.037884425,0.0022017972,0.0071973354,-0.001722954,0.0027232368,-0.03168003,-0.008125645,0.059646815,0.039952558,-0.01688583,0.01862494,0.0657102,0.014429923,-0.025358122,0.0061985217,0.015475741,-0.005593358,-0.016780073,-0.033395637,0.010064519,8.987489E-5,0.049353156,0.0002634739,0.006609798,-0.0073970985,-0.02780228,0.015992774,0.0018727761,0.0026027916,-0.0022590822,-0.024794087,0.0500112,0.004462348,-0.024747083,-0.027614268,0.0030463825,-0.041033626,0.08836565,0.013466362,-0.031021984,0.012244283,-0.025052603,0.013619121,0.015416986,0.0022855212,-0.030105427,-0.010693184,-0.029353378,-0.021492125,0.026909221,0.0060692634,-0.028037295,-0.03264359,-0.06744932,-0.058565747,-0.07873004,-0.038354453,-0.029447384,0.0022429249,-0.009124459,0.029776406,-0.004606295,0.07482879,-0.057860702,-0.003369528,-0.031068988,-0.009306596,0.015040962,-0.030528454,-0.033325132,-0.018977465,-0.0147589445,0.03950603,0.012632058,0.0034253441,-0.003539914,0.0035546024,0.052596364,-0.027402753,0.027590765,-0.007126831,-0.005966444,0.044018317,0.06697929,-0.012925827,0.010276033,-0.016498055,0.012232533,-0.044276834,-0.0036691723,-0.011251345,-0.00039879113,0.011709624,-0.023818774,0.0297059,0.060304858,0.010951701,0.014465176,-0.04018757,-0.047755055,-0.02359551,-0.017814139,0.07111555,0.013102088,0.008654429,-0.011574491,0.037790418,-0.059317794,0.019670758,-0.008989325,0.001825773,-0.043360274,0.024089042,0.0043977187,-4.5832523E-5,0.03236157,0.031656526,0.035886798,-0.06500516,0.027073732,-0.01686233,0.008002262,0.03546377,0.021750642,-0.017156098,-0.0139716435,-0.02406554,0.027214741,0.038048934,0.021315863,-0.018566187,-0.027543763,0.03391267,0.05175031,0.019071471,-0.0009158242,0.015557995,-0.0068859407,0.01611028,0.03623932,-0.010622679,0.03410068,-0.003913,0.010981077,0.031280503,0.002476471,0.034500208,0.012902326,-0.02234993,-0.013372356,0.00852517,-0.023830526,-0.03344264,-0.049682178,-0.006269026,-0.020751828,-0.0031991422,-0.090668805,-0.013196094,-0.02799029,-0.000927575,0.05607459,-0.03172703,0.043054756,0.015017461,-0.046509475,0.009024577,-0.029870411,0.0080492655,-0.010904698,-0.005910628,0.026486196,-0.015134969,0.024888093,0.014594434,0.03501724,0.056779634,0.011744876,-0.0038542466,-0.0011398229,0.010281908,-0.036638845,-0.014124404,-0.007873003,-0.0077966237,-0.008948198,0.04608645,-0.018977465,-0.040986624,0.01766138,-0.007185585,-0.062419996,-0.047285024,-0.066650264,0.027238242,0.007855377,0.011421731,-0.05739067,-0.011680247,-0.0063689076,-0.02157438,-0.030833973,-0.0018595565,-0.011286597,-0.015287728,-0.021915153,0.013936392,-0.018519185,0.023078477,0.017097345,-0.032408573,0.019212479,-0.007702618,-0.011010454,0.0005868032,0.03459421,-0.008642678,0.017414615,0.003266709,-0.0034870356,-0.003334276,-0.022737704,0.03706187,0.0052026454,0.0071033295,0.029470885,0.017226603,0.013865887,-0.036615342,-0.03536976,-0.01705034,-0.0210926,-0.00921259,0.0021738892,-0.020281797,0.058048714,-0.00016469414,-0.008625052,-0.03330163,0.024347559,-0.0068389378,-0.008560423,-0.013630873,0.008771936,-0.018824704,-0.031045487,0.01813141,-0.015851764,-0.053113397,-0.008254903,0.0038013682,0.047426034,0.039882053,0.0071620834,-0.00813152,0.024347559,0.021962155,0.016615564,0.021221858,-0.03344264,-0.035628278,0.037555404,-0.09908234,-0.0037132376,0.08173823,0.019729512,-0.010534549,0.014077401,-0.0007410318,0.038824484,-0.01766138,-0.036309823,-0.030504951,-0.054946516,0.014606184,-0.047026508,-0.076285884,-0.030716466,-0.001507034,0.015804762,-0.0672143,0.04300775,0.0021915152,0.010781315,0.015652,0.05264337,0.041292142,-0.029564891,0.022714203,-0.0006356422,0.01748512,0.03419469,0.017144347,-0.0059076906,-0.0059076906,-0.044159327,-0.03186804,-0.019423993,0.0019256545,0.0035369764,0.022079663,-0.070128486,0.01748512,-0.00898345,0.031985547,-0.010093896,-0.028930351,-0.018213665,-0.009259593,0.027755275,-0.04028158,-0.075721845,0.053536426,-0.009124459,0.06693228,0.030152429,0.04157416,0.008936447,0.02641569,0.014159656,-0.010845944,0.008636802,-0.005346592,-0.023478001,-0.0374849,-0.03952953,-0.03941202,-0.020657822,0.007062202,-0.052737374,0.046673987,0.0007777529,-0.02110435,0.023865776,-0.03969404,0.031821035,0.020763578,0.013348854,0.0032931482,-0.022126665,-0.0006723633,-0.02940038,0.007855377,-0.0017464554,-0.008895319,-0.011509862,-0.0033871543,0.01750862,0.0012786287,0.011733126,-0.015652,-0.010328911,-0.02139812,0.011580366,-0.013959893,-0.021433372,0.024794087,0.02860133,-0.0006172817,0.024747083,0.029094862,-0.036920864,0.029658897,0.012455797,0.00852517,-0.0042302706,0.007978761,-0.026627203,0.020693075,0.008484043,0.012162028,-0.012397043,0.05607459,-0.017872894,-0.032902107,0.0044505973,0.00921259,-0.011327725,0.005217334,-0.048413098,-0.03142151,-0.0006312357,-0.015746007,0.025828153,-0.014194909,0.021821147,0.0050351974,0.008460541,-0.0045710425,0.049259152,-0.03341914,-0.049964197,0.015358233,-0.016286543,0.0004905939,-0.04502888,-0.012256035,-0.037108876,0.078166,0.023231236,-0.015099716,0.0048501226,-0.026133671,-0.02596916,0.03844846,-0.034923233,-0.010722561,-0.010070395,-0.00022216265,-0.02702673,-0.041856177,0.012526302,-0.030058423,0.021492125,-0.01116909,0.02766127,0.017520372,0.039247513,0.01578126,-0.028483823,0.0074206,-0.03297261,-0.0064335368,-0.011791879,-0.002269364,-0.029047858,-0.048507106,0.035722286,0.013231346,-0.004474099,0.029635396,0.04559292,0.008883568,-0.021868149,-0.019670758,-0.015064464,-0.019976279,0.009518109,0.008061016,0.008061016,0.03217356,0.0013388513,-0.02377177,0.022749456,-0.018707197,0.014159656,0.058706757,-0.0017846455,-0.029047858,-0.024723582,0.017167848,-0.016744822,0.00177877,-0.00969437,0.009247841,0.037108876,0.025781149,-0.02780228,0.011650871,-0.019012716,-0.008237277,-0.02702673,-0.036826856,0.022420434,-0.021680137,-0.015652,0.045122888,-0.017708384,0.020258296,-0.0005207052,-0.017156098,0.011985767,-0.000140091,0.017449867,0.04907114,0.01312559,0.01672132,-0.016063279,0.038659975,0.0051527047,-0.037907925,0.0070563266,-0.016321795,0.025828153,-0.0073207184,-0.019353488,-0.014288914,-0.0018904022,-0.014183157,0.012549803,-0.0718676,0.0046209833,0.011709624,0.0093771,-0.0061691445,0.00045534162,0.004882437,0.09118584,-0.004541666,-0.011891761,-0.022467438,-0.004303713,-0.013842385,-0.020763578,0.010334786,-0.0021665448,0.038236946,-0.04018757,-0.004318401,-0.017543873,0.005405346,0.0053172153,-0.0006565733,0.041832678,0.018695446,-0.017120846,0.005987008,-0.02940038,0.009723747,0.011762503,0.0024705955,0.039623536,-0.009976388,-0.0072443387,-0.004012882,-0.0020534438,0.020411056,-0.02547563,-0.0018389927,0.028883347,-0.0009841254,-0.0006881534,-0.008401788,0.020223044,0.011362977,-0.02876584,0.033231128,-0.001590758,-0.020892836,-0.009523984,0.0076614902,-0.010187902,0.028812844,-0.022314677,0.02437106,0.0006837469,0.00922434,-0.024347559,0.015134969,-0.0029465011,-0.006668552,0.029212369,-0.006780184,-0.028483823,0.03536976,0.011210217,0.025593137,0.0005478788,-0.015052713,0.0076497393,-0.016615564,-0.033818662,0.021374617,-0.023478001,-0.00026677878,0.0023281176,0.0025748834,-0.03419469,-0.0075263567,0.0020886962,0.0024353433,0.002796679,-0.008719058,0.0029861599,0.007032825,-0.038236946,-0.016063279,0.02344275,0.0068859407,-0.020129038,-0.010246656,0.009794252,-0.0027349875,0.00031873916,-0.0156285,-0.0029156553,-0.021057347,0.040399086,0.015863515,-0.017355861,0.024911594,0.007438226,-0.018577939,0.035628278,-0.0155932475,-0.047238022,-0.01608678,0.013924641,-0.017355861,-0.00090994884,-0.0032402698,-0.03468822,0.033654153,-0.021221858,-0.009947011,-0.035722286,0.024418062,0.008771936,0.0076321135,-0.024864592,-0.011204342,-0.019470995,-0.002824587,-0.0055874824,-0.018201916,-0.0005783573,-0.006298403,-0.016627314,-0.040258076,-0.022138417,-0.009617991,0.0036926738,-0.031915043,0.014805947,0.037602406,0.040305078,0.009512234,0.010675558,0.039647035,-0.019282984,-0.029259373,0.0012551271,0.009494607,0.018190164,0.009147961,-0.013137341,-0.022902215,-0.024159545,0.042420216,-0.042725734,0.0068506883,-0.014147906,-0.023019724,0.014805947,0.0031580145,-0.0011633245,0.029917413,-0.04145665,-0.03142151,0.043172263,-0.016791824,0.035087746,0.03175053,0.0023369307,0.01968251,0.011509862,0.019600254,0.014018647,0.015087965,0.009324222,0.016169034,-0.042584725,0.006551044,0.030739967,0.011891761,-0.010934074,-0.035722286,0.013630873,-0.033348635,0.047426034,-0.0042713983,0.05612159,0.015910517,0.05081025,-0.0059840702,-0.013360605,0.029893912,-0.045874935,-0.023572009,-0.008425289,-0.011122087,-0.016592061,0.026697708,0.008166772,-0.033795163,0.06458213,-0.004089262,-0.026039666,-0.010757813,-0.025499132,0.008337159,-0.015475741,-0.015687253,0.010845944,0.0023222424,0.027708273,-0.010681434,0.017861143,0.000388142,-0.010046893,-0.0041215764,0.050857253,-0.005525791,-0.014923455,0.011080959,-0.0057843076,-0.0059546935,0.030716466,-0.0022869902,0.03957653,-0.01069906,0.0134546105,0.007626238,0.027073732,0.028883347,-0.020187791,0.039835047,0.015428737,-0.009494607,0.023889279,-0.03574579,-0.020258296,0.0010766627,-0.023501504,-0.019482747,0.025593137,-0.030692965,-0.018354675,0.041315645,0.0057784324,0.043642294,0.031703528,-0.030034922,0.009876507,0.029799907,0.011915263,0.028225306,0.02344275,-0.03689736,0.0421617,1.17450145E-5,0.025898658,0.011938764,-0.018307671,0.009118583,0.022326428,0.048836123,-0.0026409815,0.019788265,-0.017085593,-0.022584945,-0.0054376605,0.015581497,-0.04559292,0.024817588,0.021339366,0.011650871,-0.017109094,0.018683696,0.0037984306,0.017261855,-0.011022205,-0.045968942,0.031515516,0.0040070065,-0.0018786514,0.016662566,0.0022091414,0.026157174,0.003416531,0.046814997,-0.0014247787,0.01656856,0.003249083,-0.0022458625,-0.00037345357,0.019294735,-0.015005711,-0.02234993,0.027285246,-0.002184171,0.024606075,-0.013137341,0.012491049,-0.0043330896,-0.02014079,0.035087746,0.029423883,-0.027778778,0.012643809,-0.02780228,-0.005572794,-0.013008082,-0.028507324,0.011145588,0.0036192315,0.022455687,-0.042772736,0.0024794086,-0.01453568,0.008078642,0.029494388,0.001853681,0.041856177,-0.02139812,-0.022890465,-0.005478788,0.017496869,0.024629576,0.010417041,-0.043172263,0.0047796182,0.0024647203,0.04028158,-0.026650704,-0.029024357,-0.0111338375,-0.010734312,0.031468514,-0.036051307,-0.03231457,-0.016321795,0.0069975727,-0.010464044,-0.06834237,-0.007303092,-0.00952986,-0.00064555695,-0.018636692,-0.027238242,-0.0023780584,0.026533198,0.009435854,0.00029872614,-0.030128928,0.003134513,-0.016944584,0.029470885,0.01470019,0.0017743636,-0.00304932,-0.014723692,-0.007984636,-0.014899953,-0.03685036,-0.0046826745,-0.039435524,-0.0069916975,0.0164158,-0.009653242,0.025663642,0.026744712,-0.025052603,0.01876595,0.018942213,0.0022238297,0.021797644,-0.0044124075,0.022749456,0.005519916,-0.0033783412,0.0057696193,0.0005170331,0.00414214,0.00034022098,-0.059599813,-0.008578049,0.019000966,0.008889444,-0.018295921,-0.007073953,0.020552065,-0.003924751,-0.018260669,0.029000856,0.016991587,0.02954139,-0.0072737155,-0.015264227,-0.022667201,-0.0033225252,-0.032596584,-0.020270048,0.038565967,-0.0026953288,0.036662348,-8.3310995E-5,0.0061632693,-0.03762591,-0.027073732,-0.018178413,0.02423005,0.030739967,0.030034922,0.0054552867,0.013959893,0.032408573,-0.022009159,-0.00068888784,0.021527378,0.0328081,-0.0005379641,0.011521612,-0.045099385,0.021445122,-0.024817588,0.022126665,0.04028158,-0.016016275,0.019964527,-0.027896285,-0.009741373,-0.00019113332,0.048413098,-0.05532254,0.011750752,-0.011827132,0.028530825,0.029917413,-0.0015981023,0.012632058,-0.04361879,-0.015734257,-0.004244959,0.021609632,0.0048530605,-0.018695446,0.017308857,-0.02374827,-0.0058254353,-0.017708384,-0.047919568,-0.0437128,-0.02594566,0.0016965148,0.036638845,0.016474554,-0.02251444,0.02157438,-0.028178303,-0.003193267,-0.0025131921,0.012314788,-0.012820071,-0.023654263,-0.005602171,0.01985877,-0.005602171,-0.022396933,-0.006562795,-0.026439192,-0.0072149616,-0.022244174,-0.019976279,0.013137341,-0.030387444,-0.012015143,0.00021279877,-0.00804339,0.017156098,-0.002881872,-0.010646181,0.024888093,0.028859846,-0.0068741897,-0.009100958,0.02451207,0.03609831,0.01654506,-0.016169034,0.0031257,-0.0187542,-0.0234545,0.008965824,0.07567484,-0.009835379,-0.032690592,-0.010064519,0.011186716,-0.0049676304,0.010569802,0.005422972,-0.010199653,0.011315974,0.016897582,0.01421841,0.0018845268,0.022220671,-0.017908147,-0.025499132,0.032291066,-0.013854137,-0.037719913,-0.030105427,-0.0011699343,0.03207955,0.030763468,-0.010111522,-0.0027614266,-0.003193267,-0.013031584,-0.005534604,-0.003304899,0.0066450504,0.020986842,-0.011680247,0.00079831673,0.0073912228,0.024958597,0.0048060576,-0.04422983,0.0025073166,0.0039423774,0.0004773743,-0.0107284365,0.008548672,0.05875376,-0.031821035,0.0020857584,0.014053899,0.023807023,-0.024441564,-0.00406576,-0.032479078,0.0052584615,0.06378308,-0.014888203,0.0062337737,-0.010499297,0.007961134,-0.037296887,0.0072795907,0.02313723,-0.013102088,-0.029353378,-0.0421617,0.05720266,-0.006627424,0.0022605509,-0.012244283,-0.010840069,-0.0069153174,0.020552065,0.02079883,0.00515858,0.024629576,0.03459421,0.012256035,0.0033783412,0.008113895,0.018201916,0.0046327338,-0.022150168,0.04547541,-0.03485273,0.0077378703,0.010082145,0.03045795,0.035111245,-0.052126337,0.0064629135,0.014864701,0.013266599,-0.007702618,0.015840014,-0.022067912,0.0071033295,-0.011186716,-0.009905884,0.010687308,0.022772957,-0.00024089041,0.009277219,-0.007755496,-0.0014416703,-0.04733203,-0.008942322,0.047285024,0.007350095,-0.04032858,-0.0059429426,0.014547431,-0.0076321135,-0.008519295,0.022067912,-0.0023046162,-0.021809395,-0.01736761,0.0064629135,0.0022723016,-0.019318236,0.011545113,-0.009324222,-0.019623756,0.031280503,-0.049118143,-0.02533462,-0.0064687887,-0.019470995,0.0039012497,0.026462693,0.007132706,0.0037778667,0.0053084022,0.014864701,-0.03158602,0.005217334,0.002494097,0.0011229313,0.03739089,-0.010099771,-0.018777702,-0.011838882,-0.016674317,-0.0018904022,-0.012843572,0.027567264,0.03294911,-0.0066509256,0.019153725,0.015898768,-0.033207625,-0.01969426,0.0028627769,0.007755496,-0.02405379,-0.009623866,0.005176206,0.04018757,-0.002692391,-0.018871708,0.010093896,0.037931427,-0.0039394395,-0.017626127,-0.004153891,0.0033460266,-0.016075028,0.022009159,-0.0125028,0.020951591,-0.021938654,0.0039218133,0.0054347226,-0.0030728215,0.0016965148,0.0040246327,-0.0072619645,-0.009782501,0.008912945,-0.027896285,0.05019921,-0.0006808092,0.014347668,-0.0068213115,-0.0020196605,0.02048156,0.002900967,0.0021900465,0.025381625,-0.012279536,-0.01593402,0.0187542,-0.05767269,0.0218799,-0.031915043,-0.012138527,0.051233277,-0.041997187,-0.03294911,-0.012068022,-0.03990555,0.020375803,-0.017097345,0.0128905745,0.025217114,0.00414214,0.021703638,-0.004424158,-0.008125645,0.0018492746,0.05062224,-0.0076967427,0.017626127,0.018507434,-0.003454721,0.010005766,0.041080628,0.017919896,-0.0030610708,-0.020011531,0.0018992153,-0.035910297,-0.017720133,-0.002408904,-0.008266654,0.0035222878,-0.009506358,-0.018801203,-0.014018647,-0.00016754001,-0.007303092,-0.02250269,-0.0145121785,0.031844538,0.009706121,0.020469809,-0.017109094,-0.0005981867,0.008542797,0.0051732687,-0.015616749,0.045710426,0.038542464,-0.015840014,0.021456873,-0.05922379,-0.05236135,0.011974016,-0.0011501048,0.017167848,0.02374827,-0.026697708,0.012937577,-0.009382975,0.014723692,-0.0049206275,0.019329987,0.0039981934,-0.020881087,0.043806802,-0.0066391747,-0.014888203,-0.003210893,0.0041627036,0.037014868,0.011239594,0.027332248,-0.012068022,-0.0028334002,-0.01782589,-0.0032784597,-0.00672143,-0.009917635,0.031915043,-0.020540314,0.0061632693,-0.00059965556,0.020411056,0.013525115,0.012820071,-0.014183157,-0.0069623203,-0.014711942,0.0020387555,-0.0025969162,-0.045851436,-0.046744492,-0.021750642,0.007755496,0.0020931028,0.00813152,-0.0025175987,-0.043524783,0.004897126,0.010922324,-0.0010656463,-0.015616749,0.004365404,-0.0076849917,-0.025029102,-0.02311373,-0.006844813,-0.025687143,0.010129148,0.012103274,0.000120537006,0.047919568,0.030645961,0.054335475,-0.025264116,0.021151353,-0.02547563,-0.013689626,-0.009635616,-0.022185419,-0.0046356716,-0.028013792,-0.0040451963,-0.022267675,-0.0049735056,-0.042114694,0.012079773,0.045968942,0.01517022,-0.025076104,-0.016897582,-0.029940916,-0.025193611,0.017156098,-0.005461162,0.014053899,0.03172703,0.0012257503,-0.01766138,0.04864811,-0.050716244,0.023701267,-0.0043742172,-0.019212479,0.0025102543,-0.023865776,0.015487491,0.015546245,-0.05048123,0.01421841,-0.018178413,0.0147824455,0.0037984306,0.020211292,-0.022138417,0.0077731223,0.015052713,0.017461617,-0.015851764,0.0006782387,-0.017085593,-0.025640141,-0.0016318857,-0.011856508,0.007820126,-0.036991365,0.00059010804,0.066086225,-0.028342813,0.004667986,0.021680137,-0.010499297,0.009006951,0.007961134,-0.05330141,0.042866744,-0.00984713,0.045851436,-0.019130224,-0.014629686,-0.006316029,-0.03189154,-0.01593402,-0.0075263567,-0.008260778,-0.029306374,-0.006345406,-0.02451207,-0.0003965879,-0.01608678,-4.0645667E-5,0.008301906,-0.010816567,0.0116978735,-0.022913966,0.030810472,0.021010345
bb,-0.016632203,-0.0036371176,-0.015000364,0.011303621,-0.024201423,-0.0067281965,0.04523959,-0.021113483,-0.0040105577,0.011548397,-0.028720362,0.00045307062,-0.025142869,0.00088025146,0.053223047,-0.010600676,-0.00031283448,0.0059593497,0.022343637,0.03539835,0.015816282,0.024264187,0.008504391,0.015853941,-0.013770209,0.0053662388,-0.01984567,-0.002301834,-0.03539835,0.025293501,-0.032360617,0.0012756586,-0.035950664,-0.0019629137,-0.017736832,-0.004575425,-0.021803876,0.037557397,0.03168278,-0.05126484,-0.026862577,0.014774417,0.026084315,0.038812656,0.0036433937,-0.010104847,0.002074318,0.027113628,0.08018605,0.0308292,0.009960493,0.013719998,0.14309971,0.053925995,0.009860071,0.013732551,0.033766508,0.012150923,-0.009395625,0.005946797,0.0005264249,-0.0063139605,0.017962778,0.009213612,-0.03815992,-0.046745904,-0.026485998,-0.01989588,0.022619795,-0.029398203,0.04744885,-0.03303846,-0.0060817376,0.004026248,-0.014711654,0.010186439,0.007625708,-0.006301408,-0.0007539409,-0.013117473,0.00091320206,0.016506676,0.013770209,0.018678278,-0.054377887,-0.03097983,0.02567008,0.01670752,-0.047423743,0.014586128,-0.059549563,-0.031707883,0.016255625,0.04051981,0.014134234,-0.039289657,-0.08098941,0.010826622,-0.019192934,0.014925048,-0.013594472,0.034419246,-0.01936867,0.0033640983,0.027515313,0.0041988464,-0.004995937,-0.019632276,0.024690976,-0.01821383,-0.015766073,0.02799231,0.022243217,-0.009094363,0.0004114901,0.04850327,-0.006367309,0.04200102,-0.05693862,0.022218112,0.005946797,-0.029373098,-0.05964998,-0.016117545,0.0279421,-0.037155714,0.0077073,0.013067262,-0.09108171,-0.037657816,-0.0060785995,0.011962634,-0.0026846887,0.0088558635,0.0014859147,-0.036979977,-0.018803803,-0.00066097314,-0.023912715,0.05226905,-0.023812292,0.005548252,-0.013117473,-0.032988247,0.02784168,-0.020799669,0.027967205,-0.026485998,0.020661589,-0.0023787187,-0.0065775653,-0.012270172,-0.032435935,-0.06371703,-0.0327623,-9.615492E-5,0.0133308675,-0.038360763,-0.029599044,-0.045842115,0.0018012989,-0.012784829,-0.013531709,0.046545062,0.029925412,-0.058947038,-0.023398057,-0.022469165,0.03863692,0.01189987,0.04272907,0.060754612,0.010437491,-0.030603252,0.0147367595,0.0341933,-0.056285884,-0.021163693,-0.03718082,0.014134234,0.060955454,0.04895516,-0.024578001,0.006091152,0.01310492,-0.016795386,0.03936497,0.0005087728,-0.0074248663,-0.023096794,-0.028318679,0.037532292,-0.026762156,0.043858804,0.01931846,0.013418736,-0.010958425,-0.0022610382,0.015527573,0.027967205,-0.01753599,0.014473154,-0.018728487,0.00874289,-0.022318533,-0.021803876,0.01512589,0.0038379591,-0.038762446,0.045013644,0.003542973,0.0114417,0.011812002,0.021464955,-2.2727081E-5,0.03878755,0.014724206,-0.026887681,0.030025832,-0.028845888,-0.03361588,0.07903121,0.029749675,-0.021552823,0.00056172913,-0.019331012,-0.027691048,-0.06040314,0.008793101,-0.018339356,0.014134234,-0.0127157895,-0.03338993,0.00018809295,0.08355014,-0.017335149,0.021025615,-0.028444204,-0.04147381,-0.06371703,0.0130421575,-0.00014808153,-0.03497156,-0.061306927,0.0010340209,0.008874692,-0.0022500546,0.0070106303,0.06517313,0.016004572,0.006445763,-0.012822486,-0.026561314,-0.0056455345,0.05076274,0.020749457,0.0026423235,0.04036918,-0.039967496,-0.028770572,0.019582065,-0.010129953,-0.06878828,-0.01994609,-0.0072679585,0.001220741,-0.018753594,0.06959165,0.025983894,-0.018565305,-0.056386303,0.02018459,-0.038812656,-0.032536354,0.037657816,0.007952075,0.0072616823,-0.0044059646,0.046620376,-0.030954726,0.06391787,0.0452898,-0.022029823,0.013895734,0.016243072,0.022318533,-0.011259687,0.023561241,0.035624295,-0.015640547,0.02191685,0.020962851,-0.029749675,0.011491911,0.017159412,-0.002380288,-0.04561617,-0.009533704,-0.032410827,-0.021038167,0.037306346,0.010820346,0.03077899,-0.014987811,0.022519374,-0.017423017,-0.002590544,0.011159266,-0.025393922,-0.0071424325,0.030578148,-0.019305907,-0.02668684,-0.050285738,-0.050009582,-0.034620088,-0.013594472,-0.0036214266,-0.023636557,-0.0019848808,-0.034645192,-0.029122045,0.009307757,-0.045088958,-0.018276595,-0.029900307,-0.0077198525,0.001636546,-0.00079748273,-0.0573403,-0.027967205,-0.021490062,0.0070169065,-0.01974525,-0.068135545,0.060101878,0.033741403,-0.043607753,0.00816547,-0.013845524,0.005680054,-0.028042521,0.011981462,-0.028645046,0.020636484,0.052871574,0.011171819,0.0050869435,0.04292991,0.013418736,0.026310261,-0.01714686,-0.015502468,0.013268104,-0.039917286,-0.0052218838,-0.019243145,0.00058487296,0.040544916,-0.011096504,-0.018916776,0.030954726,-0.019958643,-0.009941664,0.0005201486,-0.034143087,-0.039590918,-0.009527428,0.0068474463,-0.025644973,0.044009436,-0.04995937,-0.0010756014,-0.010795241,0.023598898,0.023159558,0.0041141165,-0.046469748,-0.0033421314,-0.005592186,0.008228233,0.03622682,-0.014849733,0.0041298075,-0.0043808594,-0.00070373045,-0.0038003013,-0.038034394,0.005598462,0.0057773367,-0.027214048,0.016142651,-0.011956357,0.052068207,-0.0074248663,0.043959226,-0.03160746,-0.031758092,0.0074499715,-0.02322232,-0.04895516,-0.004726056,-0.021515166,-0.00696042,-0.013895734,-0.010418663,-0.018715935,0.012941737,-0.02726426,0.008485561,-0.03341504,0.034795824,0.021590482,-0.008516943,-0.027716154,-0.04948237,0.011636266,-0.008397693,0.011906146,0.004063906,-0.061457556,-0.02322232,-0.009822414,0.009615296,-0.0019738972,-0.024841607,0.0103559,0.058143668,-0.030076044,0.014573575,-0.013456393,-0.07551648,0.0011642542,0.0010073466,-0.035825137,-0.042226966,0.03454477,-0.0036747754,0.02191685,0.015364389,-0.044185173,0.02351103,0.011755515,-0.022293428,-0.050285738,-0.018000437,-0.024540344,0.0027035174,-0.07355827,-0.058444932,-0.028619941,-0.0049582794,-0.025105212,0.024213977,0.048427954,0.012439632,0.061859243,0.0029043593,-0.02846931,0.08530751,0.03718082,0.017084096,0.011341279,0.0069290386,0.029272677,-0.04436091,0.047699902,-0.039239444,-0.05799304,-0.0063390657,0.013431288,-0.003627703,-0.04928153,-0.03617661,-0.014297418,-0.007544116,-0.010889386,-0.035473663,0.021351982,0.022481717,3.925141E-5,-0.02115114,0.012289001,-0.07411058,0.045591064,0.05799304,0.047473956,-0.07777595,-0.019180382,-0.0017761937,0.010519084,0.040042814,-0.012966841,0.00011415026,0.019594617,-0.0018891671,-0.02086243,0.006709368,-0.04523959,0.020510959,-0.008247062,-0.05799304,0.0380595,0.032938037,-0.0072805113,0.0019880189,0.004851582,-0.051189527,0.002135512,-0.02867015,-0.03308867,-0.009019047,-0.018314252,-0.0045346287,-0.03544856,-0.028845888,0.024728633,-0.013355972,-0.0115609495,0.01420955,0.0056361197,0.020887535,-0.022720216,0.022657454,0.00925127,-0.009232442,-0.051089104,0.016720071,-0.019531855,0.0322602,-0.01057557,-0.022381296,-0.007336998,-0.018803803,-0.014322523,-0.00908181,0.023310188,0.0028227672,0.002220242,-0.021929402,-0.009627849,0.0064520393,-0.022080034,-0.016594544,-0.007776339,0.014297418,0.00013994194,0.020347774,0.007964629,0.009621573,0.016079888,0.035724714,-0.0053599626,0.019883327,-0.057591356,0.019531855,-0.011749239,0.015138443,0.016682412,0.027289364,0.01139149,0.043657962,-0.018276595,-0.014648891,0.010952149,-0.014937601,-0.024414819,-0.009803585,-0.029523728,-0.01974525,0.053072415,0.0036528083,-0.059901036,-0.00787676,-0.007870484,0.01869083,0.0075692213,-0.023498477,-0.0100107035,-0.030904515,-0.010788965,-0.0573403,-0.023849951,0.012916631,-0.009558809,0.051515892,-0.022042375,-0.024352055,0.006834894,0.011014911,-0.024427371,-0.022695111,9.130059E-5,0.011077674,0.025933683,-0.00081591937,0.0101174,-0.017874911,-0.01680794,0.004845306,-0.055080835,0.0028290434,0.034419246,-0.0020005715,-0.018577857,0.009282652,-0.025331158,-0.023059137,0.016581992,0.018703382,0.05241968,0.0040074196,-0.024490133,-0.024427371,-0.008811929,-0.0062104017,-0.047976058,-0.026034104,0.0031836545,-0.017222175,-0.0051089106,0.006426934,0.012634197,-0.026159631,0.020975403,-0.009552533,-0.016054783,0.023586346,-0.0026689977,-0.01201912,0.01974525,0.008899798,-0.013117473,0.0058903103,0.007977181,0.019732697,0.0044091027,-0.009452112,-0.0057522315,0.009985598,0.007914418,0.0029482932,-0.041021917,-0.005529423,-0.052921787,-0.012678131,-0.01590415,0.027239155,0.013782761,-0.00090064947,0.03454477,0.03916413,-0.010977253,-0.011648818,-0.0012144647,-0.011786897,-0.022983821,-0.0136195775,0.016745176,-0.026988102,-0.003127168,0.0030377307,-0.057741985,0.028946308,0.04064534,-0.024565449,-0.013029605,-0.008849587,-0.0010081312,0.06632797,0.023147006,0.047323324,-0.018427225,0.030452622,-0.009470941,-0.02361145,-0.0308292,-0.012496119,0.036678713,-0.042904805,0.022921057,-0.026335366,-0.0036433937,0.032611668,-0.0006978464,-0.0076821945,0.007519011,-0.0030079181,-0.010939596,-0.013355972,-0.009276375,-0.004826477,-0.015577784,0.012245066,-0.02167835,0.015213758,-0.012583987,-0.013644682,-0.06979249,0.009019047,-0.027540417,0.0060001453,-0.011303621,-0.012508672,-0.057691775,-0.004864135,0.022155348,-0.053273257,0.033490352,-0.0144480495,0.021540271,-0.0017165688,0.0053348574,-0.004314958,0.021841533,-0.015477363,0.04104702,0.043858804,0.00696042,-0.022444058,0.039390076,-0.03886287,-0.024690976,-0.0011571933,-0.007776339,0.007776339,0.0029608458,0.0016475295,-0.018226383,0.0047762664,0.028318679,0.020084169,-0.007092222,-0.00012140723,0.027113628,-0.024891818,0.0063233753,-0.04498854,-0.038963288,-0.036000874,-0.0018828908,0.0066152234,-0.029875202,-0.02495458,0.0016114408,-0.010544189,0.00060448644,-0.045691486,-0.021904297,-0.0044247936,0.009226165,-0.0104437675,-0.006690539,-0.011378937,-0.006859999,0.006135086,-0.0085671535,-0.03301335,0.001171315,0.043657962,0.0045503196,-0.03444435,0.0022045514,-0.032988247,-0.061306927,0.040871285,-0.040444497,0.026737051,0.016142651,-0.02201727,-0.030527936,0.014535917,0.017686622,0.056336094,0.0014639476,-0.025356263,-0.016494123,-0.01661965,0.04104702,0.0060252505,0.03213467,0.01397105,-0.0011477789,-0.02086243,-0.023209767,0.05703904,-0.017272385,-0.016556887,-0.026561314,0.024063345,-0.026260052,-0.03015136,-0.015163547,0.040871285,-0.021854086,0.015602889,-0.007839102,0.049256425,0.028745467,0.024075897,0.013431288,0.027916996,0.012728342,0.026435787,-0.022921057,0.016657308,0.037030187,0.01161116,0.018038094,-0.020021407,0.013167683,-0.010129953,0.016895806,-0.004205123,0.028494416,-0.048804533,0.001420798,0.005240713,-0.015402047,0.01638115,-0.005695745,0.060001455,-0.0044247936,0.013519157,0.0161301,-0.04614338,0.017033886,0.018100858,0.00095085986,-0.0011116902,-0.0072993403,0.044185173,-0.0308292,-0.018038094,0.005761646,0.014096576,-0.012219962,-0.021565376,-0.0048139244,0.015063127,0.026134524,0.040293865,-0.03218488,0.002734899,-0.030025832,0.016205413,-0.0026125112,-0.021515166,-0.00086063804,0.000109050765,-0.031707883,-0.04441112,0.044310696,-0.009684335,-0.00084024004,-0.010795241,-0.01161116,0.05964998,-0.03025178,-0.028042521,-0.026737051,5.584929E-5,0.014372733,-0.016657308,-0.019105066,0.031155568,-0.040168338,0.011931252,0.02519308,0.0027866785,-0.0069918013,-0.023686767,-0.045264695,0.014862285,0.0009351691,-0.012439632,0.012690685,-0.020561168,-0.020172037,0.05693862,-0.03208446,0.0010042085,0.027088523,0.027465101,0.03354056,0.00014955254,0.015640547,0.021264113,-0.013443841,0.017699175,-0.01057557,-0.0036936041,-0.021716008,0.008736613,-0.03160746,0.0039634854,-0.020435642,0.026711944,-0.014824627,0.009470941,0.015728414,-0.021301772,0.04051981,-0.0049394504,-0.022193007,-0.036051083,-0.0012230945,-0.004126669,0.0025528863,0.006364171,-0.06411871,0.0385365,0.009652954,0.008466733,0.002113545,-0.014071471,-0.0003726555,0.01907996,0.0033295786,0.028695257,0.050888263,-0.040871285,0.007192643,-0.016883254,-0.005683192,0.009019047,-0.01310492,0.028770572,-0.0030722502,-0.0057867514,0.017799595,-0.0060440795,-0.011228306,0.0046099443,-0.00058408844,0.017900016,-0.0045126616,-0.0035210059,-0.012966841,0.0057898895,-0.013569367,0.012012844,-0.0019801736,-0.0042553334,-0.015678205,-0.02899652,-0.00828472,-0.0011022757,-0.003189931,0.017561095,-0.038762446,0.009031599,0.022067482,-0.023724426,0.007004354,0.03160746,0.008793101,0.02293361,0.02904673,-0.034419246,0.0035272823,-0.03559919,-0.019331012,-0.014887391,0.028142942,0.018477436,-0.030954726,-0.004054492,0.08329909,-0.038687132,-0.030929621,0.02090009,0.026084315,0.019280802,-0.012797382,0.004732332,0.031707883,-0.032159775,0.0024540345,0.0077637867,0.029021624,0.031004936,0.026335366,0.011259687,0.022657454,0.02259469,0.0063170986,0.0046476023,-0.019381223,-0.0073244455,0.018100858,0.01709665,0.00845418,0.0116802,0.02032267,-0.036528084,-0.054076627,0.029197361,0.0044279317,-0.011303621,-0.014711654,0.00828472,0.046821218,-0.016167756,0.017134307,0.03416819,-0.023485925,0.0021512029,-0.028218258,0.0072867875,-0.0040513533,0.0056486726,0.010901938,0.0050587,0.00057232036,0.012766,-0.0004063906,0.0005640827,0.037030187,-0.026737051,-0.001317239,-0.026335366,0.04162444,0.0027647114,-0.01368234,0.014912495,-0.034670297,0.014071471,-0.0042333663,0.0041078404,0.00546666,0.01887912,-0.016694965,0.027741259,-0.06617734,-0.015351837,0.0024336365,0.015000364,-0.0007994441,-0.0043996884,0.021741113,-0.0026815503,0.016255625,-0.048101585,0.010927043,-0.02186664,0.033791613,0.0066214995,0.007770063,-0.0023441992,0.022080034,-0.050310843,-0.051465683,-0.019983748,-0.0006703876,0.0009030031,-0.0066403286,0.02086243,-0.009571362,0.013883182,-0.005589048,0.01305471,0.012634197,0.023774635,0.013230447,-0.028921204,0.02451524,0.017812148,0.005328581,-0.008717785,-0.02303403,-0.0008559308,0.033163983,-0.028870992,-0.041699756,-0.02851952,0.008485561,-0.044210277,-0.01449826,0.0004091365,-0.032109566,0.018904224,-0.010657162,-0.026385577,0.014862285,0.0073683797,-0.02278298,-0.011353832,0.01599202,0.0030565595,0.017159412,-0.026034104,0.010682267,-0.0047888192,-0.017284937,0.036979977,-0.0013321453,0.035247717,-0.0024650178,0.012966841,0.012301554,-0.011523292,0.01339363,-0.004026248,-0.027615733,0.023134453,-0.002152772,0.020987956,0.02201727,-0.015188653,-0.010198992,-0.015364389,0.003295059,0.0010834468,0.03487114,-0.012646751,-0.010023256,0.0037595055,-0.014586128,-0.015540126,-0.009690612,-0.012916631,-0.0011728841,-0.0085671535,-0.021515166,0.01449826,-0.010569294,0.0092889285,-0.0051089106,0.0074499715,-0.009740822,0.0399926,-0.030352201,0.008039944,0.020749457,0.0039885906,0.023762083,0.0114417,0.0467208,0.01081407,0.0031397205,0.00555139,0.03941518,0.020699248,-0.017661516,0.0052124695,0.090730235,-0.0073181693,-0.018201279,-0.013832971,0.0043683066,0.0067721307,0.020874983,0.009583915,0.00029067128,0.03685445,0.004741747,0.018489989,-0.014699101,-0.03087941,-0.011780621,0.02595879,0.030427516,-0.036829345,-0.025908578,-0.025306053,-0.018125962,0.0050053517,0.0022531927,-0.015176101,0.0019001507,-0.028293572,-0.009163402,-0.023787187,-0.010035808,0.0079897335,-0.005865205,0.012069331,-0.013556814,0.037231028,-0.0017353977,-0.0024807088,-0.028293572,-0.015088232,0.0022233804,-0.0051026344,-0.008347482,0.025306053,0.025532,-0.0034299996,0.025707737,0.009314033,0.04235249,0.015766073,-0.0074876295,-0.03208446,-0.011962634,0.03775824,0.012370593,0.003417447,-0.009891453,-0.020121828,0.0019189796,-0.015188653,0.01449826,0.008008562,-0.008924902,-0.010920767,0.010029532,-0.015238863,0.011429148,-0.009891453,0.0091822315,-0.03883776,0.033189088,0.038988393,-0.0070357355,0.03424351,-0.020987956,-0.018025542,-0.0032291578,-0.01604223,-0.006135086,-0.015791178,0.0028070766,0.008504391,-0.020272458,0.061859243,-0.016644755,-0.014987811,0.014661443,-0.022820637,0.0058965865,-0.0030502833,0.0041392217,-0.012106989,0.0024618797,0.009012771,-0.020510959,-0.0013148854,0.008529495,0.013757656,0.028896099,0.019808011,0.046946745,-0.020222249,0.0021951369,-0.045691486,-0.008937456,0.012634197,0.01040611,0.026511103,-0.02851952,-0.011297345,0.04220186,0.020335222,0.017661516,0.014623785,0.008083878,-0.002320663,0.027741259,-0.022707663,0.009207336,0.029347992,-0.0039697615,0.021301772,0.013556814,0.014962706,-2.6208469E-5,0.0026266328,0.0023944096,0.01057557,0.02610942,0.03891308,0.010650886,-0.0110211875,0.026134524,-0.027816575,-0.0017479503,0.0072428533,-0.0211888,0.055331886,0.0020805944,-0.009445836,-0.03359077,-0.00696042,-0.004314958,-0.010738755,0.03454477,0.02351103,-0.019569512,-0.02534371,0.011014911,0.024502687,-0.024816502,-0.008209405,0.012245066,0.0061476384,-0.011830831,-0.008598535,0.027038313,0.02090009,0.023573793,0.039038602,0.021552823,-0.043180965,0.018188726,0.009897729,-0.009922835,0.009332863,0.034042668,-0.02220556,0.017134307,0.00215591,-0.0040513533,0.0041957083,0.012696961,-0.042076334,0.007908141,-0.012966841,-0.0053976206,-0.013895734,-0.0111655425,0.012489842,0.01580373,0.00091947836,0.009904006,0.019619722,0.00028086457,-0.011535845,-0.057591356,0.022293428,0.007217748,-0.021565376,0.0066089467,-0.047423743,-0.01392084,-0.022193007,-0.00073942693,0.042427808,-0.0044467608,-0.003128737,-0.0011642542,-0.05221884,0.047574375,-0.03569961,-0.0071424325,0.01685815,0.03527282,0.038963288,0.010249202,-0.04122276,-0.00064096745,0.0037877487,-0.031381514,-0.023962924,0.009169678,-0.014661443,-0.032335512,0.04436091,0.01619286,-0.012878973,-0.009715717,0.012634197,-0.01648157,0.017749384,0.050662316,-0.025783053,0.03296314,0.0084981145,-0.0070796697,-0.0025199356,0.0019754663,0.0033735128,0.015163547,-0.01638115,0.035247717,0.010958425,0.024916923,-0.004892378,0.02731447,-0.0045032473,-0.014761864,0.0016679275,-0.0050587,0.026435787,0.01064461,-0.017699175,-0.04446133,-0.011347556,-0.0056518107,-0.01913017,-0.01811341,-0.020109273,0.0053976206,0.029322887,-0.010142505,-0.011755515,0.009753374,-0.015289074,0.0057490934,-0.04606806,0.005184226,-0.029699465,-0.010757583,-0.01772428,-0.01028686,-0.01363213,0.0481769,-0.005821271,-0.005579633,-0.017297491,-0.01772428,-0.0052972,0.0033201643,-0.009772204,0.01855275,0.00862364,-0.030276885,0.004619359,-0.038385868,0.028971413,0.007519011,0.016217967,0.016694965,0.002984382,0.028193152,0.014899943,-0.026134524,-0.029799886,0.006423796,0.030276885,-0.033992458,0.0394905,-0.013958498,0.014121681,0.0056549488,-0.03863692,0.0039446563,0.009960493,0.016556887,-6.3743704E-5,0.020172037,-0.006878828,-0.028318679,-0.0005570219,0.007631984,-0.011529569,-0.023134453,0.00982869,0.0023724425,0.013694893,-0.013832971,0.032209985,0.005884034,-0.017623859,0.006539908,-0.010318242,-0.012671855,-0.000266939,0.040971704,-0.013883182,0.035498768,-0.0033860654,0.0070608407,0.01006719,0.035624295,-0.008780547,0.016971122,-0.021716008,-0.04953258,-0.007355827,-0.016644755,0.0006907856,0.023536136,0.008655022,-0.0077324053,0.01705899,-0.0015494623,-0.008347482,-0.0009414454,0.01609244,-0.0076382607,-0.015150995,-0.01926825,-0.002281436,-0.023184663,-0.0002663506,-0.016895806,-0.028971413,0.04180018,0.040042814,-0.013732551,0.03622682,0.01259654,0.026737051,-0.015301626,0.0017871773,-0.01590415,-0.021502614,-0.030050939,-0.009452112,0.03482093,-0.044637065,0.012797382,0.011517015,-0.007983457,-0.012621645,0.0007790461,-0.0065210788,0.0050241803,0.027716154,-0.020874983,0.04162444,-0.006175882,-0.0031758093,-0.016255625,-0.04262865,-0.02393782,-0.046494853,0.023925267,0.014410391,0.01086428,-0.0114542525,-0.001677342,0.0022327946,-0.009282652,-0.021590482,-0.0036559463,-0.0046789837,0.020510959,0.033741403,-0.0059216917,0.028193152,0.012420803
adulte,0.021864591,0.013891597,-0.021240937,0.007294311,-0.0076978523,0.008590534,0.005343863,0.0035065277,0.021436593,0.053365257,-0.046003688,0.01708324,-0.032552317,0.030277811,0.048498303,-0.008578306,-0.012246861,0.012045091,0.014221767,0.037027955,0.01452748,0.034484424,-0.041845992,0.0074593965,0.013267943,-0.018232722,-0.018024836,0.079387546,-0.013047829,0.016850898,-0.041674793,0.024249151,0.014429652,0.028247878,-0.0025129605,0.0391068,0.024175782,-0.010791668,-0.031818606,-0.019076489,-0.023796696,0.06686554,0.029593015,0.034044195,-0.009911214,-0.040574223,0.018183807,-0.0048700073,0.028492449,0.00054684404,0.05258263,0.012668746,0.12610048,0.00069778983,0.067501426,-0.014478566,0.012014519,0.012289661,-0.008780076,0.018672949,0.037517093,0.016141644,-0.0070313984,0.011121837,0.025900003,0.0025679888,0.011782178,-0.03145175,-0.028247878,-0.024383666,-0.021155337,-0.037076868,-0.02243933,-0.047740135,-0.00887179,0.0012358447,-0.04888962,-0.058501232,0.018306091,-0.054685935,-0.021509964,-0.029910956,0.038862232,0.007618367,-0.029030504,-0.01948003,0.025655432,0.057327297,-0.024811665,-0.013561427,-0.036514357,-0.04324004,0.025459776,0.021008594,-0.05810992,-0.033212658,-0.002914973,0.054001138,0.0006011081,0.043288957,-0.0028171449,0.05087064,-0.028247878,-0.059772998,0.014882107,-0.023209728,0.0047507794,-0.052435886,-0.007477739,0.046370544,0.00200242,-0.058256663,-0.0062090303,0.0046774084,-0.0079057375,0.0074593965,-0.052289147,0.021815676,0.002146105,0.034875736,0.04573466,-0.056397926,-0.041748162,0.014759822,0.029739756,-0.05043041,-0.012081777,-0.0049189217,-0.05703381,-0.015102221,-0.006432201,-0.007147569,-0.0030112728,-0.0629035,-0.0045673517,-0.0070925406,0.042212848,-0.008773962,-0.03062021,0.07982777,-0.037663836,0.020690653,0.013879368,0.004362524,-0.011115723,0.0070497408,0.059772998,-0.015334562,0.058647975,-0.04888962,-0.03186752,-0.0037113554,0.014967707,-0.019822428,-0.03898452,-7.8912155E-5,0.011977834,-0.016276158,0.04267753,-0.01593376,-0.004218839,-0.018440606,-0.044634093,0.013475828,0.036514357,-0.019883571,-0.024689378,-0.015016621,0.040818796,-0.0018021779,-0.0065544858,-0.019993627,-0.012668746,-0.002733074,0.028761476,0.03103598,-0.011794406,0.01452748,0.012595374,0.055664215,0.042139474,-0.00087128195,0.00014674223,-0.00037392517,4.456722E-5,-0.02031157,0.005423348,-0.010106871,0.009709444,0.004833322,-0.023662183,0.013744854,0.020984137,0.06755034,-0.0013734155,0.030815866,-0.053952225,-0.00924476,0.042701986,0.012381375,-0.0695069,-0.008890133,-0.064566575,0.036538813,-0.0067317993,-0.019272145,0.013647026,0.030277811,-0.051751092,0.04216393,0.006456658,-0.008168651,0.052778285,-0.020849625,-0.026560342,0.041503593,-0.024469266,-0.03287026,0.01155595,0.00042532317,-0.0017043498,0.054245707,0.017193297,-0.04324004,0.02558206,-0.016422901,-0.020641739,-0.071414545,-0.046933055,0.002149162,-0.0014269153,-0.04514769,0.008064708,-0.014661994,0.0361475,-0.00048531932,-0.014356281,0.00730654,-3.2864144E-5,-0.009911214,-0.010088528,-0.026315771,0.024958406,-0.038422003,0.003185529,-0.01576256,-0.016594099,-0.010748868,0.040256284,0.060849108,-0.045245517,0.022683902,-0.01151315,-0.017034326,-0.00231119,0.06833296,-0.0035187562,0.008040251,-0.03343277,-0.008290935,0.02939736,-0.022317046,-0.012008405,-0.01742564,0.0077467663,0.014344052,0.035120305,0.031843062,0.006016431,-0.02939736,-0.039082345,-0.039742686,-0.019541172,-0.037932865,0.020996366,0.017682439,0.032747973,-0.048351564,0.015689189,0.004417552,0.029764215,0.016484043,-0.0061203735,0.0029455444,0.042701986,0.006511686,0.028198963,0.046590656,0.0016569643,0.039767142,-0.017694667,0.03326157,-0.028516905,0.013145657,0.04764231,0.019003117,-0.0462238,-0.008890133,-0.027318511,0.022634989,0.050063554,-0.008113622,-0.043875925,0.007386025,0.035120305,0.004014011,0.059039287,-0.016361758,-0.0399628,0.031549577,-0.0064260866,0.059137117,0.02634023,0.00087663194,-0.03514476,-0.009960128,0.049427673,0.0151389055,-0.029030504,0.023588812,0.024200238,-0.01856289,-0.008168651,-0.042530786,-0.022365961,-0.070534095,0.014710908,-0.006884656,-0.01881969,-0.06510463,0.010290299,-0.004863893,-0.001485765,0.06647423,-0.0038794975,0.043606896,0.03384854,-0.055077247,-0.009201961,-0.00082236785,-0.03406865,-0.030057698,-0.024408123,-0.03622087,-0.029739756,0.021925734,-0.012479203,0.027000569,0.030742496,0.000663015,0.026633713,0.006062288,0.01172715,-0.03781058,-0.02648697,0.041210108,-0.009495445,0.00077956804,0.044634093,-0.006248773,-0.016117187,-0.019626772,-0.020421626,0.0033536712,-0.0026474742,-0.08354524,0.037199154,0.01734004,-0.015701417,-0.010418698,0.03208763,-0.036123045,-0.011256351,0.0050412067,0.046492826,0.019944714,0.009636072,-0.005395834,-0.040672053,-0.011873892,0.08021908,0.035511617,-0.007960766,-0.016239472,0.03086478,-0.07288197,0.0297153,-0.02243933,-0.039987255,0.008076937,0.01296223,-0.0022225333,-0.032919172,0.0039712116,-0.06769708,0.050332583,-0.003182472,-0.004298324,0.010216927,0.009330359,0.010394241,-0.0062151444,0.011696578,0.0029593015,0.0036043557,0.007330997,-0.0364899,-0.007930194,-0.011299151,-0.030179983,-0.016826442,0.021852363,0.01593376,-0.008144193,0.005444748,-0.010198585,0.060359966,-0.01098121,-0.010877267,-0.0060286596,-0.05307177,0.021106424,-0.022708358,0.012619831,0.029568559,-0.023723327,-0.003650213,0.02220699,0.059479512,-0.0046590655,0.03208763,-0.04754448,-0.017939236,0.007318768,-0.011452008,-0.0016783641,-0.0037082983,0.024175782,-0.027318511,0.0033536712,-0.025044005,-0.008162536,-0.049329843,-0.050577153,0.0002124705,-0.016997641,0.057131637,-0.050968464,-0.026438057,-0.061191507,0.03079141,-0.011127952,-0.046786312,-0.017462324,0.025117377,-0.007410482,0.009403731,-0.0015759503,-0.014906564,-0.008835104,0.009367045,-0.009544359,-0.008321507,-0.03639207,-0.0023906755,-0.0037296982,0.03837309,-0.0043992097,-0.026535885,-0.013390228,0.033530597,-0.023980124,0.0065239146,-0.0017593781,-0.06344155,0.00365327,0.0041546393,-0.015652504,-0.01444188,-0.007758995,0.012356918,0.028590277,-0.02815005,-0.05233806,0.07894731,0.014600852,0.050039098,-0.015823703,0.005842175,0.027514167,0.025166292,0.017217753,-0.012094005,0.053463083,-0.007850708,-0.006013374,-0.008822876,-0.037150238,-0.046761855,0.0011800521,-0.005726004,-0.05439245,0.005940003,9.9356716E-5,0.008553849,0.010540983,-0.032381117,0.019785743,0.050674982,-0.010871153,-0.014185081,-0.009825614,-0.008278707,-0.058550145,-0.034949105,0.004860836,-0.005753518,0.004056811,0.00924476,-0.03705241,0.010510412,-0.0028706447,-0.022965157,-0.009104132,0.006444429,0.049941268,-0.065495946,0.011103495,0.023087444,0.00023425255,0.006866313,0.047397736,0.0020253484,-0.014674222,0.0230263,0.010797782,-0.02467715,0.019871343,-0.018954204,-0.035854015,0.03847092,-0.026291315,-0.026193487,-0.012466975,-0.0075694527,-0.0033108713,-0.008492706,-0.010223041,-0.003586013,0.022904016,-0.01279103,0.005661804,0.011812749,-0.011531493,0.0030708867,-0.014417423,0.021644479,0.02401681,-0.020617282,-0.0060317167,-0.0055364617,0.007428825,-0.01287663,0.02088631,-0.0097767,-0.033555053,0.0013657727,-0.021717848,0.017780267,-0.020421626,0.04402267,-0.01658187,-0.037150238,-0.010051842,-0.0014192724,-0.019198773,0.061436076,-0.009287559,0.02212139,-0.0007375325,-0.027489709,-0.009929557,-0.012393603,-0.009984585,0.003943697,0.027856566,0.023062985,-0.050626066,0.047275454,0.022353731,0.04108782,-0.01369594,-0.028908217,-0.022928473,0.00012811284,-0.0022531045,-0.0016554357,-0.0364899,-0.042212848,-0.0018067636,-0.034386594,0.0026428886,-0.002433475,0.02682937,0.040549766,-0.046688482,0.02450595,-0.02146105,0.0027422453,0.004573466,0.0070925406,0.0014475508,0.01881969,0.031916432,0.020935224,0.02196242,-0.03360397,-0.008767848,0.040769883,-0.027758736,0.019883571,-0.009764472,0.026046744,0.0034300995,0.029617472,-0.014931021,0.006328258,0.016887585,0.0018495634,-0.014747594,0.03287026,0.02509292,0.016166102,-0.012338575,-0.029103873,0.0231975,-0.013610342,-0.011617092,0.011042352,-0.053120684,0.042310674,-0.00013088336,-0.008853448,0.024065724,-0.0014636008,0.00526132,-0.032968085,-0.009067447,0.012308004,-0.02832125,0.03829972,-0.026071202,0.0046193227,0.014490794,-0.028590277,0.041797075,-0.029152788,0.011788292,0.035780646,-0.0007486146,-0.012454746,-0.0011609449,-0.050283667,0.014209539,0.053952225,0.026022287,0.000725304,-0.0149432495,-0.02558206,0.0799256,0.036881212,0.06593617,0.002925673,0.057571866,-0.040598683,0.0035218133,0.025484232,-0.02905496,-0.009843958,-0.019700143,0.01254646,-0.02526412,0.029910956,0.025777716,0.0006993184,0.055517472,-0.015530218,-0.038250808,0.020568369,-0.02031157,0.03499802,0.024346981,0.038006235,-0.0046101515,0.015285648,-0.00042035533,0.021436593,-0.012167376,0.010320869,-0.02144882,0.0064688865,0.039742686,-0.0036226986,-0.015542447,-0.004435895,0.007789566,-0.0007872109,-0.017437868,0.012729888,-0.019027574,0.011990062,-0.016117187,0.0048210933,-0.0021827905,-0.005093178,-0.009269217,0.014270681,-0.013255714,-0.021179793,-0.027856566,-0.016239472,0.007190369,0.0025832746,0.003112158,-0.00730654,0.0007222469,0.011861663,0.006866313,0.019247688,-0.020115914,0.0018938918,0.0015469076,-0.0150899915,-0.001569836,0.057425123,-0.028101135,0.048351564,-0.01757238,-0.010681611,-0.017046554,-0.030546838,-0.027025025,-0.02558206,-0.004509266,-0.0011876948,0.010706068,-0.014356281,-0.04010954,-0.0015323862,-0.001261066,0.008608877,-0.012729888,-0.020177055,0.0075572245,-0.015652504,0.019345516,-0.0052735484,-0.024640465,0.024995092,0.09093127,0.017841408,0.0068968846,0.0079546515,-0.026022287,-0.0018954204,0.0065850574,0.01073664,-0.031745233,0.0062182015,-0.030106613,-0.016141644,0.02144882,-0.0012419589,0.0039284118,0.017205525,-0.020653969,-0.011140181,0.012852173,0.022255903,0.013475828,0.016117187,-0.035389334,-0.03485128,-0.042579703,-0.022537159,0.033970825,-0.0031519006,0.02467715,0.020984137,-0.009654416,-0.032723516,0.003650213,-0.00039054832,0.009629958,-0.046077058,0.029935414,0.016814213,0.023038529,-0.0018189921,-0.008920704,-0.009770586,0.011256351,0.018746318,0.046003688,0.009367045,-0.0046560084,0.025826631,0.009825614,-0.015897075,-0.009452645,0.045098778,0.0024808608,0.0050289785,-0.016104959,0.013573656,-0.021986876,-0.0017823066,-0.007801795,-0.019712372,0.0025068463,-0.051800005,0.008315393,-0.009091903,-0.025141833,0.046321627,-0.036636643,0.018269407,0.043827012,0.033286028,0.014588622,0.03152512,0.021253165,0.017462324,-0.041576963,0.01996917,0.015334562,0.006371058,-0.03145175,-0.031158265,0.0399628,0.022390418,0.048229277,-0.019443344,0.037663836,0.0032955857,0.013634798,-0.012803259,-0.028908217,0.01485765,-0.008089165,-0.01742564,-0.014466338,0.010797782,-0.038911145,-0.0010654096,-0.004463409,0.017058784,0.03697904,0.027783195,-0.03514476,-0.016740842,0.013598112,-0.002995987,-0.01254646,-0.0047293794,0.01461308,-0.019345516,-0.028174507,0.020996366,-0.008810648,0.02995987,-0.006768485,0.00585746,0.032161005,0.00064696505,-0.017816951,0.0041821534,-0.045269977,-0.051310863,-0.02724514,-0.0032344433,0.032381117,-0.0056495755,0.01725444,0.0040904395,0.031011524,0.021937963,-0.0053163483,0.019920256,-0.017963694,0.0013772369,0.008810648,-0.03558499,-0.03433768,0.0024013752,0.0066461996,-0.022720587,-0.012369147,0.008309279,0.0026459456,-0.008559963,-0.03299254,0.009446531,-0.012314118,0.006750142,0.016777527,0.00684797,0.018538434,0.0044450667,-0.0052735484,-0.020336026,0.010492069,-0.02815005,0.024139095,-0.021192024,2.0325135E-5,0.006719571,0.046395,0.0032191575,0.0069213416,0.02237819,-0.021632249,0.0010356026,-0.046664026,0.015004392,-0.0039742687,0.052142404,0.039131258,0.027196225,-0.038177434,0.013598112,0.004243296,0.007960766,0.038177434,0.012680974,0.008816762,-0.0066400855,-0.0044664666,0.012485317,-0.025459776,0.034631163,0.02682937,0.01649627,0.0035890702,-0.0099907,0.023014072,0.037663836,0.035169218,-0.01159875,0.016471814,0.019908028,0.07943646,0.002714731,0.010180241,-0.01716884,0.023062985,0.0025970316,-0.00075167173,0.008456021,0.033799626,-0.0020008914,-0.019846886,-0.002898159,-0.02839462,-0.01052264,-0.026046744,0.018171579,-0.018599577,0.019076489,-0.06554486,-0.0046284944,0.009519902,-0.013610342,0.0009377745,-0.010559326,0.015053307,-0.005356091,0.007820138,-0.025044005,0.02756308,0.023918983,-0.0017884208,-0.022402646,-0.015077763,0.014392966,0.018697405,-0.0026673456,0.0037449838,0.004081268,-0.024126867,-0.015359019,-0.00097216724,-0.027440796,-0.0041087824,0.051213037,0.01543239,-0.034264307,0.012051205,0.0057229465,-0.011091267,-0.015579132,-0.016532958,0.009226417,0.009477102,-0.027367424,0.025068464,-0.017621296,-0.022891786,-0.014258453,0.024004582,-0.026584798,-0.01856289,0.0053652623,0.010168013,0.00231119,-0.0035768417,-0.014637536,-0.006505572,-0.012522003,-0.00047538365,0.014209539,0.024212467,-0.014368509,0.036636643,-0.017352268,0.03812852,0.025361948,0.018379463,0.0099907,-0.011672121,0.039571486,0.003925354,-0.005756575,0.025386404,-0.023173044,-0.0051696063,-0.004784408,-0.003228329,-0.009892872,-0.016251702,0.003586013,-0.054441366,-0.002697917,-0.03316374,-0.005686261,-0.0033292142,0.021350993,0.0008873319,0.022500474,-0.004408381,-0.006013374,-0.027783195,-0.0008926818,-0.009831729,0.028908217,-0.0025802173,-0.030522382,0.0397916,-0.03416648,-0.02815005,0.0075388816,0.0097767,-0.025508689,0.0018602634,-0.0017028212,-0.008511049,0.002708617,0.0025741032,0.01270543,-0.024664922,0.0038856117,-0.026755998,0.030326726,0.000297688,-0.0029455444,-0.033970825,-0.025044005,0.011708806,0.00796688,0.007752881,0.0232831,0.021522192,-0.004503152,-0.016912041,0.024787206,0.013757084,-0.013720398,-0.00017310996,-0.0027055598,0.046150427,0.004365581,-0.0038336406,0.00017043497,-0.01932106,-0.0060684024,0.030938152,0.023307556,-0.000627858,0.0055700904,0.019431116,0.026193487,-0.013671484,-0.028174507,-0.0295441,-0.024701608,0.010901724,-0.004221896,-0.006297687,0.018636262,-0.018746318,0.0044236667,-0.049721155,-0.034484424,-0.0038061263,0.022586074,-0.039400287,-0.0031977575,-0.036930125,0.01461308,-0.020409398,-0.013720398,-0.0012511302,0.0017670209,-0.0005659511,-0.031231636,-0.008321507,-0.013500284,0.008193107,-0.032674603,-0.020984137,-0.012827716,0.0075144246,-0.00047729435,-0.034606706,0.015077763,0.012393603,-0.010681611,-0.004958664,0.034777906,0.0065483716,0.00429221,0.014258453,0.021155337,-0.023344241,-0.023356471,0.019088717,0.0799256,0.01601936,-0.005233806,-0.0040873825,0.01873409,0.0021476336,0.004814979,0.008223679,-0.011953377,0.0009507673,-0.012534232,-0.0046988083,-0.042750902,-0.025777716,-0.021999104,-0.019186545,0.0015927645,-0.026804913,0.008676134,-0.003125915,-0.04169925,0.0037113554,0.013426913,-0.00036513593,0.033481684,0.011500922,0.0075816815,0.010278069,0.030669125,-0.005475319,0.01468645,0.02863919,-0.010699954,-0.0028217307,0.03837309,-0.01848952,-0.0231119,-0.008131965,0.040256284,4.182058E-5,-0.03311483,0.047250997,0.009428188,-0.016459586,-0.022904016,0.03135392,0.00261996,-0.020874081,0.00684797,-0.012668746,-0.013610342,0.071414545,-0.0051696063,-0.015591362,-0.00528272,-0.012173491,-0.011427551,0.021522192,0.0034331565,0.0022393474,-0.003136615,-0.0084499065,0.012479203,0.011158523,-0.015383476,-0.009984585,-0.036294244,-0.014075025,0.018342778,-0.016826442,-0.003463728,0.0071597975,0.035976302,-0.0017395067,0.0008070822,-0.008932933,0.054441366,0.005729061,-0.009507673,0.024713837,-0.033286028,0.005331634,0.036343157,0.0019428058,-0.021436593,-0.052142404,0.011439779,0.028565818,0.0025328319,0.013854912,0.0022745044,-0.018526206,0.017560152,-0.0027911593,0.028443534,0.019920256,0.0066645425,-0.012246861,0.027196225,-0.028027764,-0.011953377,-0.01444188,-0.00084758917,0.0099479,0.008437678,-0.029690843,0.005912489,0.00625183,0.042188387,-0.034777906,0.007355454,-0.021754535,-0.008773962,-0.0103330985,-0.022145847,0.0047966363,0.0005349977,0.0018251064,-0.014295138,-0.011873892,0.024811665,-0.013610342,0.0013711227,0.0034606708,0.013329085,0.005732118,-0.008021908,0.026707085,0.009684986,-0.018318322,0.0363187,-0.00730654,-0.00726374,-0.017266668,0.027807651,0.076501615,0.015909303,-0.023576584,0.023466527,-0.022720587,0.0049403217,0.005426405,0.011525379,0.0005101585,-0.000460098,0.007386025,0.0034270424,-0.04010954,-0.0234543,0.043802552,-0.013341314,0.025777716,-0.014013882,-0.00083918206,0.027587539,-0.019687915,0.0076489383,0.022060247,0.020812938,-0.021167565,-0.008639448,-0.013023372,0.0014223296,0.004289153,0.037076868,-0.042653073,0.02592446,-0.020360483,-0.009134703,-0.0031733005,0.013671484,-0.013182343,0.00874339,-0.02682937,-8.5934E-5,0.005637347,0.0005227692,0.04803362,0.023637727,0.045000948,-0.00730654,-0.001204509,-0.0025206034,-0.003252786,0.0028752305,0.0044664666,0.0035218133,0.00034813065,-0.027881023,-0.04482975,0.029690843,-0.011231895,0.0045918087,0.014882107,-0.042017188,-0.01468645,-0.0069947126,-0.032894716,0.025704347,-0.017633524,-0.0097889295,0.02682937,-0.011366408,0.01593376,0.0040415255,-0.0038336406,0.013854912,0.033359397,-0.014258453,-0.00722094,-0.02080071,-0.012252975,-0.0008384178,0.028443534,0.028908217,0.019908028,0.017376725,0.033726253,-0.05297394,0.009831729,0.053854395,-0.011244123,-0.015212277,-0.04793579,-0.008235907,0.015261191,-0.032234374,0.0039712116,-0.016129415,-0.027685367,-0.0075572245,-0.026682628,0.029519644,-0.033530597,0.0047752364,-0.008217565,-0.013647026,0.012619831,0.02756308,0.049770072,-0.025117377,-0.0010249027,-0.009611616,-0.011207437,-0.0055456334,-0.006841856,-0.0031106295,-0.010510412,-0.059039287,0.03798178,-0.016863126,0.0061509446,0.01221629,0.0229407,0.001994777,-0.034777906,-0.008553849,-0.023246413,-0.013377999,-0.02062951,0.0064933435,0.010644926,0.0046070945,-0.006792942,0.028296791,-0.027367424,-0.011085152,-0.020739567,-0.012149033,0.0059583457,0.013145657,-0.0065972856,-0.03609859,0.00891459,-0.0014995221,0.024579322,0.010168013,-0.015542447,-0.00044939807,0.021363221,0.00013823959,0.02541086,-0.032381117,-0.031084893,-0.0054814336,-0.00082695356,-0.023918983,0.020360483,-0.0050595496,-0.015371248,0.008480477,0.035560533,0.0014658937,-0.020825166,0.02888376,0.0293729,0.037859492,-0.002898159,-0.03394637,0.003659384,0.0032864143,0.00891459,-0.0038275262,0.024139095,-0.019443344,0.019076489,-0.0035676702,-0.0059522316,-0.021693392,-0.02616903,0.0017975923,-0.013231257,-0.02846799,-0.03423985,0.01159875,0.011629321,-0.012522003,-0.045172147,0.0014781222,0.03044901,0.020274883,-0.047568936,0.008168651,0.030571297,-0.027440796,0.017865866,-0.025044005,0.027881023,0.041161194,-0.011531493,0.009562702,-0.001355837,0.006462772,-0.004530666,-0.004081268,0.0021904334,-0.009611616,0.00625183,-0.011702692,-0.005863575,-0.026462514,0.017413411,-0.0049189217,0.013842683,0.025190748,0.0056067756,-0.0033536712,0.016899813,0.0006935863,0.005936946,-0.015493533,0.007807909,0.010516526,0.028737018,0.0361475,-0.010589897,0.0013199158,-0.041063365,0.014319595,0.06877319,0.005307177,0.016545186,0.016447358,0.011207437,0.005729061,0.025508689,-0.02616903,0.04771568,0.0025893888,0.017291125,-0.0019550344,-0.023992354,-0.016606329,-0.04062314,0.032576773,-0.00037870192,0.016716385,-0.028834846,-0.031231636,-0.00045513018,0.008780076,0.0070191696,0.007245397,0.011372522,-0.019223232,0.012252975,0.010492069,-0.02080071,0.02401681
